FANN_FLO_2.1
num_layers=8
learning_rate=0.700000
connection_rate=1.000000
network_type=0
learning_momentum=0.000000
training_algorithm=2
train_error_function=1
train_stop_function=1
cascade_output_change_fraction=0.010000
quickprop_decay=-0.000100
quickprop_mu=1.750000
rprop_increase_factor=1.200000
rprop_decrease_factor=0.500000
rprop_delta_min=0.000000
rprop_delta_max=50.000000
rprop_delta_zero=0.100000
cascade_output_stagnation_epochs=12
cascade_candidate_change_fraction=0.010000
cascade_candidate_stagnation_epochs=12
cascade_max_out_epochs=150
cascade_min_out_epochs=50
cascade_max_cand_epochs=150
cascade_min_cand_epochs=50
cascade_num_candidate_groups=2
bit_fail_limit=9.99999977648258209229e-03
cascade_candidate_limit=1.00000000000000000000e+03
cascade_weight_multiplier=4.00000005960464477539e-01
cascade_activation_functions_count=10
cascade_activation_functions=3 5 7 8 10 11 14 15 16 17 
cascade_activation_steepnesses_count=4
cascade_activation_steepnesses=2.50000000000000000000e-01 5.00000000000000000000e-01 7.50000000000000000000e-01 1.00000000000000000000e+00 
layer_sizes=12 21 21 21 21 21 21 2 
scale_included=0
neurons (num_inputs, activation_function, activation_steepness)=(0, 0, 0.00000000000000000000e+00) (0, 0, 0.00000000000000000000e+00) (0, 0, 0.00000000000000000000e+00) (0, 0, 0.00000000000000000000e+00) (0, 0, 0.00000000000000000000e+00) (0, 0, 0.00000000000000000000e+00) (0, 0, 0.00000000000000000000e+00) (0, 0, 0.00000000000000000000e+00) (0, 0, 0.00000000000000000000e+00) (0, 0, 0.00000000000000000000e+00) (0, 0, 0.00000000000000000000e+00) (0, 0, 0.00000000000000000000e+00) (12, 5, 1.00000000000000000000e+00) (12, 5, 1.00000000000000000000e+00) (12, 5, 1.00000000000000000000e+00) (12, 5, 1.00000000000000000000e+00) (12, 5, 1.00000000000000000000e+00) (12, 5, 1.00000000000000000000e+00) (12, 5, 1.00000000000000000000e+00) (12, 5, 1.00000000000000000000e+00) (12, 5, 1.00000000000000000000e+00) (12, 5, 1.00000000000000000000e+00) (12, 5, 1.00000000000000000000e+00) (12, 5, 1.00000000000000000000e+00) (12, 5, 1.00000000000000000000e+00) (12, 5, 1.00000000000000000000e+00) (12, 5, 1.00000000000000000000e+00) (12, 5, 1.00000000000000000000e+00) (12, 5, 1.00000000000000000000e+00) (12, 5, 1.00000000000000000000e+00) (12, 5, 1.00000000000000000000e+00) (12, 5, 1.00000000000000000000e+00) (0, 5, 1.00000000000000000000e+00) (21, 5, 1.00000000000000000000e+00) (21, 5, 1.00000000000000000000e+00) (21, 5, 1.00000000000000000000e+00) (21, 5, 1.00000000000000000000e+00) (21, 5, 1.00000000000000000000e+00) (21, 5, 1.00000000000000000000e+00) (21, 5, 1.00000000000000000000e+00) (21, 5, 1.00000000000000000000e+00) (21, 5, 1.00000000000000000000e+00) (21, 5, 1.00000000000000000000e+00) (21, 5, 1.00000000000000000000e+00) (21, 5, 1.00000000000000000000e+00) (21, 5, 1.00000000000000000000e+00) (21, 5, 1.00000000000000000000e+00) (21, 5, 1.00000000000000000000e+00) (21, 5, 1.00000000000000000000e+00) (21, 5, 1.00000000000000000000e+00) (21, 5, 1.00000000000000000000e+00) (21, 5, 1.00000000000000000000e+00) (21, 5, 1.00000000000000000000e+00) (0, 5, 1.00000000000000000000e+00) (21, 5, 1.00000000000000000000e+00) (21, 5, 1.00000000000000000000e+00) (21, 5, 1.00000000000000000000e+00) (21, 5, 1.00000000000000000000e+00) (21, 5, 1.00000000000000000000e+00) (21, 5, 1.00000000000000000000e+00) (21, 5, 1.00000000000000000000e+00) (21, 5, 1.00000000000000000000e+00) (21, 5, 1.00000000000000000000e+00) (21, 5, 1.00000000000000000000e+00) (21, 5, 1.00000000000000000000e+00) (21, 5, 1.00000000000000000000e+00) (21, 5, 1.00000000000000000000e+00) (21, 5, 1.00000000000000000000e+00) (21, 5, 1.00000000000000000000e+00) (21, 5, 1.00000000000000000000e+00) (21, 5, 1.00000000000000000000e+00) (21, 5, 1.00000000000000000000e+00) (21, 5, 1.00000000000000000000e+00) (21, 5, 1.00000000000000000000e+00) (0, 5, 1.00000000000000000000e+00) (21, 5, 1.00000000000000000000e+00) (21, 5, 1.00000000000000000000e+00) (21, 5, 1.00000000000000000000e+00) (21, 5, 1.00000000000000000000e+00) (21, 5, 1.00000000000000000000e+00) (21, 5, 1.00000000000000000000e+00) (21, 5, 1.00000000000000000000e+00) (21, 5, 1.00000000000000000000e+00) (21, 5, 1.00000000000000000000e+00) (21, 5, 1.00000000000000000000e+00) (21, 5, 1.00000000000000000000e+00) (21, 5, 1.00000000000000000000e+00) (21, 5, 1.00000000000000000000e+00) (21, 5, 1.00000000000000000000e+00) (21, 5, 1.00000000000000000000e+00) (21, 5, 1.00000000000000000000e+00) (21, 5, 1.00000000000000000000e+00) (21, 5, 1.00000000000000000000e+00) (21, 5, 1.00000000000000000000e+00) (21, 5, 1.00000000000000000000e+00) (0, 5, 1.00000000000000000000e+00) (21, 5, 1.00000000000000000000e+00) (21, 5, 1.00000000000000000000e+00) (21, 5, 1.00000000000000000000e+00) (21, 5, 1.00000000000000000000e+00) (21, 5, 1.00000000000000000000e+00) (21, 5, 1.00000000000000000000e+00) (21, 5, 1.00000000000000000000e+00) (21, 5, 1.00000000000000000000e+00) (21, 5, 1.00000000000000000000e+00) (21, 5, 1.00000000000000000000e+00) (21, 5, 1.00000000000000000000e+00) (21, 5, 1.00000000000000000000e+00) (21, 5, 1.00000000000000000000e+00) (21, 5, 1.00000000000000000000e+00) (21, 5, 1.00000000000000000000e+00) (21, 5, 1.00000000000000000000e+00) (21, 5, 1.00000000000000000000e+00) (21, 5, 1.00000000000000000000e+00) (21, 5, 1.00000000000000000000e+00) (21, 5, 1.00000000000000000000e+00) (0, 5, 1.00000000000000000000e+00) (21, 5, 1.00000000000000000000e+00) (21, 5, 1.00000000000000000000e+00) (21, 5, 1.00000000000000000000e+00) (21, 5, 1.00000000000000000000e+00) (21, 5, 1.00000000000000000000e+00) (21, 5, 1.00000000000000000000e+00) (21, 5, 1.00000000000000000000e+00) (21, 5, 1.00000000000000000000e+00) (21, 5, 1.00000000000000000000e+00) (21, 5, 1.00000000000000000000e+00) (21, 5, 1.00000000000000000000e+00) (21, 5, 1.00000000000000000000e+00) (21, 5, 1.00000000000000000000e+00) (21, 5, 1.00000000000000000000e+00) (21, 5, 1.00000000000000000000e+00) (21, 5, 1.00000000000000000000e+00) (21, 5, 1.00000000000000000000e+00) (21, 5, 1.00000000000000000000e+00) (21, 5, 1.00000000000000000000e+00) (21, 5, 1.00000000000000000000e+00) (0, 5, 1.00000000000000000000e+00) (21, 0, 1.00000000000000000000e+00) (0, 0, 1.00000000000000000000e+00) 
connections (connected_to_neuron, weight)=(0, -1.50000000000000000000e+03) (1, 1.50000000000000000000e+03) (2, -1.48611169433593750000e+03) (3, -1.46819860839843750000e+03) (4, -1.36178759765625000000e+03) (5, 1.91721275448799133301e-01) (6, -5.24939393997192382812e+00) (7, -5.62414646148681640625e-01) (8, -9.83023357391357421875e+00) (9, -1.45718383789062500000e+03) (10, -1.49999792480468750000e+03) (11, -2.94035959243774414062e+00) (0, 1.50000000000000000000e+03) (1, -1.50000000000000000000e+03) (2, 1.49999914550781250000e+03) (3, 1.49690612792968750000e+03) (4, 1.49962951660156250000e+03) (5, 1.79715362548828125000e+02) (6, 1.93009877204895019531e+00) (7, 4.31151717901229858398e-01) (8, 1.83236673474311828613e-01) (9, 1.50000000000000000000e+03) (10, 1.50000000000000000000e+03) (11, 2.50117111206054687500e+00) (0, 1.50000000000000000000e+03) (1, -1.50000000000000000000e+03) (2, 1.49999987792968750000e+03) (3, 1.49953283691406250000e+03) (4, 6.83122497558593750000e+02) (5, 2.87094841003417968750e+01) (6, 2.66394519805908203125e+00) (7, 2.42335438728332519531e+00) (8, 3.76176452636718750000e+00) (9, 1.50000000000000000000e+03) (10, 1.50000000000000000000e+03) (11, 1.97338664531707763672e+00) (0, 1.50000000000000000000e+03) (1, -1.50000000000000000000e+03) (2, 1.49999987792968750000e+03) (3, 8.47034423828125000000e+02) (4, 3.19235900878906250000e+02) (5, 1.97803668975830078125e+01) (6, 4.32969474792480468750e+00) (7, 4.57671546936035156250e+00) (8, 4.17341461181640625000e+02) (9, 1.50000000000000000000e+03) (10, 1.50000000000000000000e+03) (11, 1.32753591537475585938e+01) (0, -1.50000000000000000000e+03) (1, 1.50000000000000000000e+03) (2, -1.37447558593750000000e+03) (3, -1.47009130859375000000e+03) (4, -8.78777954101562500000e+02) (5, -2.90697026252746582031e+00) (6, 1.36008369922637939453e+00) (7, -8.03408682346343994141e-01) (8, -2.14885902404785156250e+01) (9, -1.45720983886718750000e+03) (10, -1.49997827148437500000e+03) (11, -3.23586578369140625000e+01) (0, 1.50000000000000000000e+03) (1, -1.50000000000000000000e+03) (2, 1.49926037597656250000e+03) (3, 1.47870471191406250000e+03) (4, 1.50000000000000000000e+03) (5, -7.16425061225891113281e-01) (6, 1.43380475044250488281e+00) (7, 1.20676923543214797974e-02) (8, 7.08455991744995117188e+00) (9, -4.48861389160156250000e+01) (10, 1.50000000000000000000e+03) (11, -4.06202650070190429688e+00) (0, 1.50000000000000000000e+03) (1, -1.50000000000000000000e+03) (2, 1.49991735839843750000e+03) (3, 1.49839648437500000000e+03) (4, 8.26949234008789062500e+01) (5, 1.92507705688476562500e+01) (6, 3.03478956222534179688e+00) (7, 1.98141145706176757812e+00) (8, 1.37671816349029541016e+00) (9, 1.50000000000000000000e+03) (10, 1.50000000000000000000e+03) (11, 2.84910655021667480469e+00) (0, 1.50000000000000000000e+03) (1, -1.50000000000000000000e+03) (2, 1.49881359863281250000e+03) (3, 1.49962939453125000000e+03) (4, 4.74468750000000000000e+02) (5, 2.35889739990234375000e+01) (6, 2.23642086982727050781e+00) (7, 1.72675144672393798828e+00) (8, 8.50311040878295898438e-01) (9, 1.50000000000000000000e+03) (10, 1.50000000000000000000e+03) (11, 1.12284994125366210938e+01) (0, 1.50000000000000000000e+03) (1, -1.50000000000000000000e+03) (2, 1.49991796875000000000e+03) (3, 1.49768908691406250000e+03) (4, 1.47418212890625000000e+03) (5, 1.55502500534057617188e+01) (6, 1.68674838542938232422e+00) (7, 7.77539014816284179688e-01) (8, 7.11122632026672363281e-01) (9, 1.50000000000000000000e+03) (10, 1.50000000000000000000e+03) (11, 3.23603463172912597656e+00) (0, 1.50000000000000000000e+03) (1, -1.50000000000000000000e+03) (2, 1.49881408691406250000e+03) (3, 1.49759497070312500000e+03) (4, 1.50000000000000000000e+03) (5, 1.44401979446411132812e+01) (6, 1.05855684280395507812e+01) (7, 3.96369385719299316406e+00) (8, 9.01542854309082031250e+00) (9, 1.50000000000000000000e+03) (10, 1.50000000000000000000e+03) (11, 2.48729553222656250000e+01) (0, 1.50000000000000000000e+03) (1, -1.50000000000000000000e+03) (2, 1.49969873046875000000e+03) (3, 1.49620312500000000000e+03) (4, 1.50000000000000000000e+03) (5, 2.17325038909912109375e+01) (6, 2.59137749671936035156e+00) (7, 1.12137591838836669922e+00) (8, 2.59445905685424804688e+00) (9, 1.50000000000000000000e+03) (10, 1.50000000000000000000e+03) (11, 1.09359681606292724609e+00) (0, 1.50000000000000000000e+03) (1, -1.50000000000000000000e+03) (2, 1.49991760253906250000e+03) (3, 1.49775659179687500000e+03) (4, 3.75955474853515625000e+02) (5, 3.80328865051269531250e+01) (6, 6.38969564437866210938e+00) (7, 1.08816146850585937500e+00) (8, 1.20063543319702148438e+00) (9, 1.50000000000000000000e+03) (10, 1.50000000000000000000e+03) (11, 6.44417858123779296875e+00) (0, -1.50000000000000000000e+03) (1, 1.50000000000000000000e+03) (2, 1.49918884277343750000e+03) (3, 1.50000000000000000000e+03) (4, 1.49999987792968750000e+03) (5, 4.84580116271972656250e+01) (6, 3.79952735900878906250e+01) (7, 8.75592947006225585938e-01) (8, 4.67446613311767578125e+00) (9, 1.50000000000000000000e+03) (10, 1.47102221679687500000e+03) (11, 1.21171436309814453125e+01) (0, 1.50000000000000000000e+03) (1, -1.50000000000000000000e+03) (2, 1.49881396484375000000e+03) (3, 1.49775659179687500000e+03) (4, 3.27174438476562500000e+02) (5, 1.59401184082031250000e+02) (6, 8.04103946685791015625e+00) (7, 5.11358165740966796875e+00) (8, 4.91711902618408203125e+00) (9, 1.50000000000000000000e+03) (10, 1.50000000000000000000e+03) (11, 4.68864250183105468750e+00) (0, 1.50000000000000000000e+03) (1, -1.50000000000000000000e+03) (2, 1.49999987792968750000e+03) (3, 1.49763024902343750000e+03) (4, 1.08925549316406250000e+03) (5, 8.77594852447509765625e+00) (6, 2.74056482315063476562e+00) (7, 1.71618568897247314453e+00) (8, 1.77314221858978271484e+00) (9, 1.50000000000000000000e+03) (10, 1.50000000000000000000e+03) (11, 1.94622063636779785156e+00) (0, -1.50000000000000000000e+03) (1, 1.50000000000000000000e+03) (2, -1.29957897949218750000e+03) (3, -1.47181689453125000000e+03) (4, 2.32707611083984375000e+02) (5, 5.31277619302272796631e-03) (6, 1.89809408038854598999e-02) (7, 4.83933001756668090820e-01) (8, 1.29637229442596435547e+00) (9, 3.01442694664001464844e+00) (10, -1.49999792480468750000e+03) (11, 1.05827085673809051514e-01) (0, 1.50000000000000000000e+03) (1, -1.50000000000000000000e+03) (2, 1.49881359863281250000e+03) (3, 1.49775659179687500000e+03) (4, 9.99611511230468750000e+02) (5, 6.71045959472656250000e+02) (6, 2.85826635360717773438e+00) (7, 2.08862662315368652344e+00) (8, 9.15058016777038574219e-01) (9, 1.50000000000000000000e+03) (10, 1.50000000000000000000e+03) (11, 5.43229579925537109375e+00) (0, 1.50000000000000000000e+03) (1, -1.50000000000000000000e+03) (2, 1.49991845703125000000e+03) (3, 1.49941113281250000000e+03) (4, 1.50000000000000000000e+03) (5, 3.54535522460937500000e+01) (6, 3.46869587898254394531e+00) (7, 2.22175145149230957031e+00) (8, 3.47948145866394042969e+00) (9, 1.50000000000000000000e+03) (10, 1.50000000000000000000e+03) (11, 3.05186033248901367188e+00) (0, 1.50000000000000000000e+03) (1, -1.50000000000000000000e+03) (2, 1.49881420898437500000e+03) (3, 1.49775659179687500000e+03) (4, 1.21772529602050781250e+02) (5, 1.25874433517456054688e+01) (6, 2.61360621452331542969e+00) (7, 1.98980867862701416016e+00) (8, 1.93498921394348144531e+00) (9, 1.50000000000000000000e+03) (10, 1.50000000000000000000e+03) (11, 4.61567354202270507812e+00) (0, -4.18147735595703125000e+02) (1, -1.50000000000000000000e+03) (2, 4.25281250000000000000e+02) (3, 1.53103664517402648926e-01) (4, -6.62205442786216735840e-02) (5, -1.02321481704711914062e+00) (6, -9.09097969532012939453e-01) (7, -6.72009885311126708984e-01) (8, -2.75209259986877441406e+00) (9, 9.65098953247070312500e+00) (10, -6.28763977050781250000e+02) (11, -1.49645214080810546875e+01) (12, 1.18360717773437500000e+03) (13, -5.71418823242187500000e+02) (14, 1.54720616340637207031e+00) (15, -8.83965606689453125000e+01) (16, 1.22997154235839843750e+02) (17, 2.05427627563476562500e+02) (18, -2.81375656127929687500e+01) (19, 3.14848828315734863281e+00) (20, 1.13986959457397460938e+01) (21, -1.06131744384765625000e+02) (22, 1.24254341125488281250e+01) (23, 4.21601247787475585938e+00) (24, 1.49976098632812500000e+03) (25, 6.22222423553466796875e-01) (26, 5.43157815933227539062e-01) (27, 3.98533416748046875000e+02) (28, -9.43160533905029296875e-01) (29, 3.71857970952987670898e-01) (30, -5.34319162368774414062e+00) (31, 4.79014511108398437500e+01) (32, 1.14586806297302246094e+00) (12, -1.03688745117187500000e+03) (13, 2.97860550880432128906e+00) (14, 1.27918386459350585938e+01) (15, 9.12942352294921875000e+01) (16, -7.74287796020507812500e+01) (17, 1.49856665039062500000e+03) (18, 1.40405969619750976562e+01) (19, 1.48578643798828125000e+01) (20, 1.49957983398437500000e+03) (21, 6.32364892959594726562e+00) (22, 1.49999218750000000000e+03) (23, 8.79743671417236328125e+00) (24, 2.16124801635742187500e+01) (25, 1.68182392120361328125e+01) (26, 9.61439228057861328125e+00) (27, -1.45061755371093750000e+03) (28, 1.45183115005493164062e+01) (29, 8.91228485107421875000e+00) (30, 1.37668342590332031250e+01) (31, 1.47228063964843750000e+03) (32, 1.40710153579711914062e+01) (12, -1.08813977050781250000e+03) (13, 3.88482600450515747070e-01) (14, 4.47977113723754882812e+00) (15, 3.28292489051818847656e+00) (16, -6.93030953407287597656e-01) (17, 8.22347412109375000000e+02) (18, 4.67458820343017578125e+00) (19, 4.71912384033203125000e+00) (20, 4.07387447357177734375e+00) (21, 4.40539550781250000000e+00) (22, 1.37103286743164062500e+02) (23, 4.30236387252807617188e+00) (24, 4.41385936737060546875e+00) (25, 3.89776968955993652344e+00) (26, 6.42118310928344726562e+00) (27, -1.33632226562500000000e+03) (28, 4.96108007431030273438e+00) (29, 5.15034627914428710938e+00) (30, 3.94695043563842773438e+00) (31, 1.48278454589843750000e+03) (32, 4.87058353424072265625e+00) (12, -1.03688830566406250000e+03) (13, 1.70079669952392578125e+01) (14, 6.94000701904296875000e+01) (15, 2.70317697525024414062e+00) (16, -1.60896277427673339844e+00) (17, 1.49725317382812500000e+03) (18, 7.92126388549804687500e+01) (19, 7.81788711547851562500e+01) (20, 2.59824096679687500000e+02) (21, 5.31162023544311523438e+00) (22, 1.49958020019531250000e+03) (23, 7.96221466064453125000e+01) (24, 3.49704170227050781250e+01) (25, 2.35887207031250000000e+02) (26, 8.78506183624267578125e+00) (27, -1.42092004394531250000e+03) (28, 7.79597015380859375000e+01) (29, 2.54037809371948242188e+00) (30, 7.85261535644531250000e+01) (31, 1.36426208496093750000e+03) (32, 7.88252792358398437500e+01) (12, 1.08473358154296875000e+01) (13, 4.62243309020996093750e+01) (14, 2.38395285606384277344e+00) (15, -3.79160499572753906250e+01) (16, 1.59729337692260742188e+00) (17, 3.55326724052429199219e+00) (18, 2.88062000274658203125e+00) (19, 4.13166284561157226562e+00) (20, 2.26725745201110839844e+00) (21, 3.60576934814453125000e+01) (22, 2.12727756500244140625e+01) (23, 4.67975425720214843750e+00) (24, 2.53312683105468750000e+00) (25, 1.96542656421661376953e+00) (26, 2.72504615783691406250e+00) (27, -1.04589996337890625000e+01) (28, 3.51025795936584472656e+00) (29, 2.84297370910644531250e+00) (30, 3.91231250762939453125e+00) (31, 1.56671890258789062500e+02) (32, 1.61335217952728271484e+00) (12, -1.03713757324218750000e+03) (13, 5.88023338317871093750e+01) (14, 2.32757759094238281250e+01) (15, 5.36415624618530273438e+00) (16, -2.78878021240234375000e+01) (17, 6.38380920410156250000e+02) (18, 1.11332817077636718750e+02) (19, 1.11550933837890625000e+02) (20, 1.70471878051757812500e+01) (21, 7.03391790390014648438e+00) (22, 1.49959240722656250000e+03) (23, 1.09871086120605468750e+02) (24, 6.64476089477539062500e+01) (25, 2.60224273681640625000e+02) (26, 1.12475233078002929688e+01) (27, -1.42091870117187500000e+03) (28, 1.11306831359863281250e+02) (29, 1.11697835922241210938e+01) (30, 1.12092483520507812500e+02) (31, 1.04730383300781250000e+03) (32, 1.11092193603515625000e+02) (12, -1.03688842773437500000e+03) (13, 8.95125102996826171875e+00) (14, 4.70589813232421875000e+02) (15, 4.08355665206909179688e+00) (16, -1.38613745117187500000e+03) (17, 1.49726184082031250000e+03) (18, 3.80565414428710937500e+01) (19, 3.83852882385253906250e+01) (20, 1.49999133300781250000e+03) (21, 1.02873826026916503906e+00) (22, 1.49999218750000000000e+03) (23, 3.25109672546386718750e+01) (24, 7.20624971389770507812e+00) (25, 4.80126571655273437500e+01) (26, 5.71509582519531250000e+02) (27, -1.42072094726562500000e+03) (28, 3.82384071350097656250e+01) (29, 5.10951721191406250000e+02) (30, 9.28655776977539062500e+01) (31, 1.35944506835937500000e+03) (32, 3.92921867370605468750e+01) (12, -4.60111160278320312500e+01) (13, 2.95627059936523437500e+01) (14, 5.51843833923339843750e+00) (15, -1.72022294998168945312e+00) (16, 7.94247253417968750000e+02) (17, 6.47799587249755859375e+00) (18, 1.43118357658386230469e+00) (19, 1.67750656604766845703e+00) (20, -1.47595911026000976562e+01) (21, 7.10030972957611083984e-01) (22, 2.08389968872070312500e+01) (23, -7.92226486206054687500e+01) (24, -5.31318664550781250000e+01) (25, 3.81168305873870849609e-01) (26, 6.23646354675292968750e+00) (27, -1.45215502929687500000e+03) (28, 9.92107927799224853516e-01) (29, 2.48557424545288085938e+00) (30, 9.21529293060302734375e-01) (31, 1.49999865722656250000e+03) (32, 1.70856618881225585938e+00) (12, -1.08813818359375000000e+03) (13, 4.79998445510864257812e+00) (14, 5.22286510467529296875e+00) (15, 1.08544206619262695312e+00) (16, -2.25681819915771484375e+01) (17, 1.20107739257812500000e+03) (18, 9.70136489868164062500e+01) (19, 9.77154617309570312500e+01) (20, 2.36548252105712890625e+01) (21, 1.90564286708831787109e+00) (22, 1.16981970214843750000e+03) (23, 9.59985809326171875000e+01) (24, 5.18219661712646484375e+00) (25, 1.60229034423828125000e+02) (26, 1.83910286426544189453e+00) (27, -1.43250659179687500000e+03) (28, 9.75128555297851562500e+01) (29, 3.92518210411071777344e+00) (30, 9.73483047485351562500e+01) (31, 1.47294714355468750000e+03) (32, 9.67266311645507812500e+01) (12, -1.11989994049072265625e+01) (13, 4.52401458740234375000e+02) (14, 9.96321141719818115234e-01) (15, 2.61140316724777221680e-01) (16, 7.66779422760009765625e+00) (17, 1.25543670654296875000e+01) (18, 6.24139726161956787109e-01) (19, 1.58143651485443115234e+00) (20, 2.05260604619979858398e-01) (21, 6.04146067053079605103e-03) (22, 1.24591983854770660400e-01) (23, 6.18569016456604003906e-01) (24, 1.62684071063995361328e+00) (25, 4.21388112008571624756e-02) (26, 9.68523621559143066406e-01) (27, -2.42583847045898437500e+00) (28, 2.45710581541061401367e-01) (29, 8.45599710941314697266e-01) (30, 1.31355226039886474609e+00) (31, 1.49999890136718750000e+03) (32, -2.87289798259735107422e-01) (12, -1.08788891601562500000e+03) (13, 1.30033702850341796875e+01) (14, 3.94094300270080566406e+00) (15, 7.49736070632934570312e+00) (16, -1.36971325683593750000e+03) (17, 1.49740405273437500000e+03) (18, 2.21047687530517578125e+00) (19, 1.98167359828948974609e+00) (20, 1.04672298431396484375e+01) (21, 4.66373586654663085938e+00) (22, 9.51051330566406250000e+00) (23, 3.39211487770080566406e+00) (24, 4.06344223022460937500e+00) (25, 6.69212460517883300781e-01) (26, 3.37476301193237304688e+00) (27, -1.42085534667968750000e+03) (28, 3.12503433227539062500e+00) (29, 3.29346394538879394531e+00) (30, 3.00000596046447753906e+00) (31, 1.15649597167968750000e+03) (32, 6.89046680927276611328e-01) (12, -5.95989112854003906250e+01) (13, 4.79926824569702148438e+00) (14, 1.32974112033843994141e+00) (15, 4.01766014099121093750e+00) (16, -1.40520238876342773438e+00) (17, 1.49990588378906250000e+03) (18, 2.58999371528625488281e+00) (19, 1.73693680763244628906e+00) (20, 2.64203977584838867188e+00) (21, 2.52103042602539062500e+00) (22, 4.87243728637695312500e+01) (23, 4.79474592208862304688e+00) (24, 1.77147281169891357422e+00) (25, 1.26542127132415771484e+00) (26, 1.30108714103698730469e+00) (27, -1.44521533203125000000e+03) (28, 1.53819417953491210938e+00) (29, 1.23531186580657958984e+00) (30, 2.14940237998962402344e+00) (31, 1.58586914062500000000e+02) (32, 1.46811401844024658203e+00) (12, 1.34930798339843750000e+03) (13, 2.77439899444580078125e+01) (14, -3.54161190986633300781e+00) (15, -9.42362689971923828125e+00) (16, 2.89484375000000000000e+02) (17, -1.45997180175781250000e+03) (18, -3.61389636993408203125e+00) (19, -3.45437026023864746094e+00) (20, -1.73496818542480468750e+00) (21, -7.51337337493896484375e+00) (22, 9.59734261035919189453e-01) (23, -1.29068148136138916016e+00) (24, 2.55430489778518676758e-01) (25, -4.40205907821655273438e+00) (26, -2.20407795906066894531e+00) (27, 1.49999597167968750000e+03) (28, -2.61328411102294921875e+00) (29, -3.60673189163208007812e+00) (30, -3.06412720680236816406e+00) (31, -1.28084985351562500000e+03) (32, -3.12116956710815429688e+00) (12, -1.08788867187500000000e+03) (13, 4.21516036987304687500e+00) (14, 5.66901588439941406250e+00) (15, 2.03596735000610351562e+00) (16, -8.88834533691406250000e+01) (17, 1.49894384765625000000e+03) (18, 4.08662796020507812500e+00) (19, 4.89282751083374023438e+00) (20, 2.50283355712890625000e+01) (21, 3.94387197494506835938e+00) (22, 1.20767383575439453125e+01) (23, 5.22011518478393554688e+00) (24, 3.97990489006042480469e+00) (25, 4.40440559387207031250e+00) (26, -2.08321952819824218750e+01) (27, -1.41771508789062500000e+03) (28, 5.16874694824218750000e+00) (29, 3.78572010993957519531e+00) (30, 5.12399101257324218750e+00) (31, 1.41119543457031250000e+03) (32, 3.48394393920898437500e+00) (12, 1.18958789062500000000e+03) (13, -1.94596920013427734375e+01) (14, 1.87454491853713989258e-01) (15, -1.37892055511474609375e+00) (16, 1.54568731784820556641e-01) (17, -9.95835510253906250000e+02) (18, -1.13147377967834472656e+00) (19, -5.64078807830810546875e-01) (20, -1.45773732662200927734e+00) (21, -8.52136135101318359375e-01) (22, -3.52709655761718750000e+02) (23, -5.97102999687194824219e-01) (24, 3.11972469091415405273e-01) (25, -1.39458924531936645508e-01) (26, -2.13464230298995971680e-01) (27, 6.60678634643554687500e+01) (28, -1.00916302204132080078e+00) (29, -3.42824697494506835938e-01) (30, -2.29414224624633789062e-01) (31, -2.24117919921875000000e+02) (32, -7.50184774398803710938e-01) (12, 2.08617954254150390625e+01) (13, -7.72935867309570312500e+01) (14, 8.74457180500030517578e-01) (15, 1.43659286499023437500e+01) (16, -5.59266567230224609375e-01) (17, 2.80438323974609375000e+02) (18, 8.51109206676483154297e-01) (19, 1.45547082647681236267e-02) (20, -6.42695546150207519531e-01) (21, -1.57831878662109375000e+02) (22, -1.37701446533203125000e+02) (23, -1.82456955313682556152e-01) (24, -6.44641757011413574219e-01) (25, 9.77695882320404052734e-01) (26, -2.78848886489868164062e-01) (27, 9.09008972167968750000e+02) (28, -4.84333515167236328125e-01) (29, 9.31917250156402587891e-01) (30, 6.46161079406738281250e-01) (31, -1.47084484863281250000e+03) (32, -9.82543170452117919922e-01) (12, -1.08813879394531250000e+03) (13, 2.51087226867675781250e+01) (14, 4.25902462005615234375e+00) (15, 1.23179092407226562500e+01) (16, -7.66552810668945312500e+01) (17, 1.49298449707031250000e+03) (18, 2.04019832611083984375e+01) (19, 2.18313274383544921875e+01) (20, 2.89189682006835937500e+01) (21, 3.05204725265502929688e+00) (22, 9.79308349609375000000e+02) (23, 2.27661247253417968750e+01) (24, 4.01054191589355468750e+01) (25, 4.05468521118164062500e+01) (26, 2.16699481010437011719e+00) (27, -1.39885412597656250000e+03) (28, 2.01264972686767578125e+01) (29, 2.85579395294189453125e+00) (30, 2.00302963256835937500e+01) (31, 1.47294909667968750000e+03) (32, 1.99920444488525390625e+01) (12, -1.03688708496093750000e+03) (13, 3.35206108093261718750e+01) (14, 2.12440071105957031250e+01) (15, 4.00994825363159179688e+00) (16, -2.24167053222656250000e+02) (17, 1.49692675781250000000e+03) (18, 2.27623043060302734375e+01) (19, 2.48386173248291015625e+01) (20, 8.98743820190429687500e+00) (21, 4.27752447128295898438e+00) (22, 5.65839653015136718750e+01) (23, 2.34866027832031250000e+01) (24, 1.70680866241455078125e+01) (25, 4.08497848510742187500e+01) (26, 6.23234939575195312500e+00) (27, -1.42451135253906250000e+03) (28, 2.35920867919921875000e+01) (29, 3.63964772224426269531e+00) (30, 2.40565700531005859375e+01) (31, 1.35910913085937500000e+03) (32, 2.18670272827148437500e+01) (12, -1.08813842773437500000e+03) (13, 6.04625854492187500000e+01) (14, 4.00951671600341796875e+00) (15, 8.37748110294342041016e-01) (16, -6.74837646484375000000e+02) (17, 1.49857165527343750000e+03) (18, 4.89102840423583984375e+00) (19, 6.10764169692993164062e+00) (20, 7.31891860961914062500e+01) (21, 4.43422317504882812500e+00) (22, 1.49998046875000000000e+03) (23, 7.40952634811401367188e+00) (24, 4.20766305923461914062e+00) (25, 6.46725130081176757812e+00) (26, 3.76464152336120605469e+00) (27, -1.41443737792968750000e+03) (28, 5.33265829086303710938e+00) (29, 3.84094786643981933594e+00) (30, 4.83153820037841796875e+00) (31, 1.48992700195312500000e+03) (32, 4.37111997604370117188e+00) (12, -1.03688867187500000000e+03) (13, 1.95016571044921875000e+02) (14, 4.15609025955200195312e+00) (15, 1.52104425430297851562e+00) (16, -1.46609817504882812500e+02) (17, 1.49483520507812500000e+03) (18, 3.75006484985351562500e+00) (19, 4.27526378631591796875e+00) (20, 1.49999145507812500000e+03) (21, 2.60462427139282226562e+00) (22, 8.13706665039062500000e+02) (23, 8.93618965148925781250e+00) (24, 2.84052324295043945312e+00) (25, 7.77103424072265625000e+00) (26, 2.83550524711608886719e+00) (27, -1.42089001464843750000e+03) (28, 4.57478284835815429688e+00) (29, 3.10397148132324218750e+00) (30, 1.47650041580200195312e+01) (31, 1.35098486328125000000e+03) (32, 3.18725991249084472656e+00) (33, 5.66181802749633789062e+00) (34, 6.81053924560546875000e+00) (35, 1.49998229980468750000e+03) (36, 3.14572937011718750000e+02) (37, 1.63518859863281250000e+02) (38, 1.21960048675537109375e+01) (39, 7.61526060104370117188e+00) (40, 1.49999694824218750000e+03) (41, 1.48803356933593750000e+03) (42, 1.48007080078125000000e+03) (43, 1.49120043945312500000e+03) (44, 1.49972460937500000000e+03) (45, -1.45537170410156250000e+03) (46, 1.49999633789062500000e+03) (47, -2.07500503540039062500e+02) (48, -1.43064477539062500000e+03) (49, 1.49989135742187500000e+03) (50, 1.49999230957031250000e+03) (51, 1.97115573883056640625e+01) (52, -7.78732395172119140625e+00) (53, 1.05400901794433593750e+02) (33, -2.76978707313537597656e+00) (34, 5.73979492187500000000e+02) (35, 5.91681938171386718750e+01) (36, 6.39368057250976562500e+01) (37, 1.50758275985717773438e+01) (38, 2.25569152832031250000e+00) (39, 1.49889355468750000000e+03) (40, 1.49999804687500000000e+03) (41, 2.04683303833007812500e+01) (42, 1.78642463684082031250e+01) (43, 1.49843139648437500000e+03) (44, 1.10127395629882812500e+02) (45, -1.49893737792968750000e+03) (46, 1.47959033203125000000e+03) (47, -6.36090454101562500000e+02) (48, 5.26156921386718750000e+02) (49, 2.58144378662109375000e+02) (50, 1.49814111328125000000e+03) (51, 6.28730344772338867188e+00) (52, 4.69746494293212890625e+00) (53, -7.27486982941627502441e-02) (33, 1.69786376953125000000e+01) (34, 3.54565525054931640625e+00) (35, 4.84005828857421875000e+02) (36, 1.07140150070190429688e+01) (37, 2.98979167938232421875e+01) (38, 9.55149841308593750000e+00) (39, 4.95334577560424804688e+00) (40, 1.49999780273437500000e+03) (41, 1.57308654785156250000e+01) (42, 1.48007202148437500000e+03) (43, 1.49119665527343750000e+03) (44, 2.18372344970703125000e+00) (45, -4.02646087646484375000e+02) (46, 9.41340942382812500000e+02) (47, -5.26109886169433593750e+00) (48, -1.41972106933593750000e+03) (49, 1.49995007324218750000e+03) (50, 2.16543151855468750000e+02) (51, 2.80902462005615234375e+01) (52, 3.79160237312316894531e+00) (53, 3.11294674873352050781e+00) (33, -1.18592672348022460938e+01) (34, 2.20036339759826660156e+00) (35, 1.49998706054687500000e+03) (36, 3.35493040084838867188e+00) (37, 1.59677953720092773438e+01) (38, 1.53799152374267578125e+00) (39, 1.11696529388427734375e+00) (40, 1.09216577148437500000e+03) (41, 2.45314812660217285156e+00) (42, 1.42690551757812500000e+03) (43, 1.19117374420166015625e+01) (44, 1.49965563964843750000e+03) (45, -1.49930761718750000000e+03) (46, 1.49999719238281250000e+03) (47, -2.75111022949218750000e+02) (48, -1.41492529296875000000e+03) (49, 1.49989147949218750000e+03) (50, 4.58868675231933593750e+01) (51, 1.54593479633331298828e+00) (52, 1.90292274951934814453e+00) (53, 6.53060495853424072266e-01) (33, -4.60818603515625000000e+02) (34, 3.46624374389648437500e+01) (35, 3.96025896072387695312e+00) (36, 1.32930479049682617188e+01) (37, 6.67546813964843750000e+02) (38, 5.84949970245361328125e+00) (39, 1.00107412338256835938e+01) (40, 3.11086540222167968750e+01) (41, 8.67668914794921875000e+00) (42, -1.26892108917236328125e+01) (43, 8.65596199035644531250e+00) (44, 1.11935766601562500000e+03) (45, 7.87690067291259765625e+00) (46, 2.42813629150390625000e+02) (47, -1.03959533691406250000e+03) (48, 8.15476703643798828125e+00) (49, 7.17916870117187500000e+01) (50, 9.61065387725830078125e+00) (51, 6.12259674072265625000e+00) (52, 2.56555032730102539062e+00) (53, 7.00617885589599609375e+00) (33, 2.27892578125000000000e+02) (34, 2.36746621131896972656e+00) (35, -5.54534018039703369141e-01) (36, -1.51191204786300659180e-01) (37, -8.17562520503997802734e-01) (38, -5.36807715892791748047e-01) (39, 4.00824546813964843750e+00) (40, -1.04616165161132812500e+02) (41, -1.16914761066436767578e+00) (42, 4.59682989120483398438e+00) (43, 1.27482013702392578125e+01) (44, -9.94034729003906250000e+01) (45, 6.35494422912597656250e+00) (46, -3.62690582275390625000e+01) (47, 2.47264289855957031250e+01) (48, 3.79604125976562500000e+02) (49, -4.60795307159423828125e+00) (50, -2.01477169990539550781e+00) (51, -1.92564177513122558594e+00) (52, -6.18768513202667236328e-01) (53, -2.51947736740112304688e+00) (33, 1.01556036376953125000e+03) (34, -1.77192413806915283203e+00) (35, 4.27629232406616210938e-01) (36, 8.17146152257919311523e-02) (37, 7.56196899414062500000e+01) (38, -3.98355200886726379395e-02) (39, -1.20179986953735351562e+01) (40, -1.71258422851562500000e+02) (41, 8.17129135131835937500e-01) (42, 5.21857643127441406250e+01) (43, -4.99749153852462768555e-01) (44, -2.13783800601959228516e-01) (45, 4.48267459869384765625e+00) (46, -6.37529869079589843750e+01) (47, 1.30434513092041015625e+00) (48, 3.54208984375000000000e+01) (49, -2.18502879142761230469e+00) (50, -9.86920773983001708984e-01) (51, -1.10724776983261108398e-01) (52, -1.00754165649414062500e+00) (53, -9.31553840637207031250e-01) (33, 1.49988024902343750000e+03) (34, -1.79670405387878417969e+00) (35, 1.40741205215454101562e+00) (36, 1.41706609725952148438e+00) (37, -3.47945281982421875000e+02) (38, 2.31243205070495605469e+00) (39, -2.17233524322509765625e+01) (40, -1.02156835937500000000e+03) (41, 2.12618541717529296875e+00) (42, 1.44671325683593750000e+03) (43, 2.25868873596191406250e+01) (44, -1.48803173828125000000e+03) (45, 1.48586654663085937500e+01) (46, -2.97960987091064453125e+01) (47, 1.47781262207031250000e+03) (48, 1.49946997070312500000e+03) (49, 5.86374616622924804688e+00) (50, -8.01625728607177734375e+00) (51, 3.72957825660705566406e+00) (52, 7.60923027992248535156e-01) (53, 1.45889237523078918457e-01) (33, -5.85219116210937500000e+01) (34, 2.88640625000000000000e+02) (35, 1.38086193847656250000e+03) (36, 1.49778894042968750000e+03) (37, 6.50104064941406250000e+01) (38, 1.06675781250000000000e+03) (39, 1.49999475097656250000e+03) (40, 1.49999804687500000000e+03) (41, 3.88080322265625000000e+02) (42, 2.96251831054687500000e+01) (43, 6.77406005859375000000e+02) (44, 2.43332958221435546875e+01) (45, 1.36856338500976562500e+02) (46, 1.49999633789062500000e+03) (47, -4.21477279663085937500e+01) (48, -7.08690063476562500000e+02) (49, 1.49326647949218750000e+03) (50, 1.49994262695312500000e+03) (51, 8.80934143066406250000e+01) (52, 8.34380722045898437500e+01) (53, 1.49846337890625000000e+03) (33, 1.29143285751342773438e+01) (34, 2.96263656616210937500e+01) (35, 4.81008850097656250000e+02) (36, 1.09946594238281250000e+03) (37, 3.13751907348632812500e+01) (38, 1.49998278808593750000e+03) (39, 1.49436364746093750000e+03) (40, 5.36889587402343750000e+02) (41, 1.49993493652343750000e+03) (42, 2.52022571563720703125e+01) (43, 1.49059838867187500000e+03) (44, 1.37973871231079101562e+01) (45, -2.61146354675292968750e+01) (46, 1.49999633789062500000e+03) (47, -2.04679393768310546875e+01) (48, -4.90625946044921875000e+02) (49, 1.49954577636718750000e+03) (50, 1.49999340820312500000e+03) (51, 2.27070236206054687500e+01) (52, 7.37880659103393554688e+00) (53, 1.14875842285156250000e+03) (33, 4.15396881103515625000e+01) (34, 1.41076927185058593750e+01) (35, 1.38097790527343750000e+03) (36, 5.82062377929687500000e+02) (37, 3.36044654846191406250e+01) (38, 2.72250118255615234375e+01) (39, 1.65319404602050781250e+01) (40, 1.49999780273437500000e+03) (41, 2.38156986236572265625e+00) (42, 1.47704565429687500000e+03) (43, 1.49123522949218750000e+03) (44, 2.48494103550910949707e-01) (45, -2.88367492675781250000e+02) (46, 6.94435729980468750000e+01) (47, 1.24911451339721679688e+00) (48, -1.41709118652343750000e+03) (49, 1.37168713378906250000e+03) (50, 5.30843734741210937500e+01) (51, 1.90410900115966796875e+01) (52, 6.73610973358154296875e+00) (53, 5.82628402709960937500e+01) (33, 4.56775516271591186523e-01) (34, 4.83276275634765625000e+02) (35, 1.49998291015625000000e+03) (36, 2.98914642333984375000e+02) (37, 2.07473468780517578125e+01) (38, 3.68795089721679687500e+01) (39, 1.47860314941406250000e+03) (40, 1.02336309814453125000e+03) (41, 1.25259790039062500000e+03) (42, 2.31683242797851562500e+02) (43, 1.48025268554687500000e+03) (44, 2.07067535400390625000e+02) (45, -1.33353125000000000000e+03) (46, 1.49999633789062500000e+03) (47, -8.14874084472656250000e+02) (48, -1.40720812988281250000e+03) (49, 1.49998364257812500000e+03) (50, 1.49999157714843750000e+03) (51, 1.49467712402343750000e+03) (52, 1.18682411193847656250e+02) (53, 1.47848535156250000000e+03) (33, 4.42418022155761718750e+01) (34, -5.46837539672851562500e+01) (35, -4.03932380676269531250e+00) (36, -1.31425048828125000000e+02) (37, -1.18349082946777343750e+02) (38, -6.04205741882324218750e+01) (39, -7.43877258300781250000e+01) (40, -6.18188667297363281250e+01) (41, -2.88915119171142578125e+01) (42, 1.44044628143310546875e+01) (43, -1.09214331054687500000e+03) (44, -6.61026458740234375000e+01) (45, -2.58054656982421875000e+01) (46, -2.99826869964599609375e+01) (47, 7.01449401855468750000e+02) (48, 5.35780677795410156250e+01) (49, -7.16551971435546875000e+01) (50, -1.42349279785156250000e+03) (51, -8.22785568237304687500e+01) (52, -7.09799743652343750000e+02) (53, -4.18188514709472656250e+01) (33, -1.95712685585021972656e+00) (34, 2.70030883789062500000e+02) (35, 1.49997814941406250000e+03) (36, 1.48704687500000000000e+03) (37, 4.65226745605468750000e+01) (38, 1.28877099609375000000e+03) (39, 1.49999475097656250000e+03) (40, 1.09271948242187500000e+03) (41, 1.49999157714843750000e+03) (42, 2.62682819366455078125e+01) (43, 1.49051123046875000000e+03) (44, 2.44208374023437500000e+01) (45, -9.45625152587890625000e+01) (46, 1.49999633789062500000e+03) (47, -2.43345832824707031250e+01) (48, -7.30272094726562500000e+02) (49, 1.48382397460937500000e+03) (50, 1.49999096679687500000e+03) (51, 2.40157947540283203125e+01) (52, 1.66188488006591796875e+01) (53, 1.49914038085937500000e+03) (33, -2.37679243087768554688e+00) (34, 6.55271053314208984375e+00) (35, 1.49996423339843750000e+03) (36, 1.48042517089843750000e+03) (37, 2.35603675842285156250e+01) (38, 6.33927062988281250000e+02) (39, 1.49436853027343750000e+03) (40, 1.41737329101562500000e+03) (41, 1.49978955078125000000e+03) (42, 1.18697766113281250000e+03) (43, 1.49113281250000000000e+03) (44, 7.32383117675781250000e+02) (45, -1.49402905273437500000e+03) (46, 1.49999633789062500000e+03) (47, -1.93843975067138671875e+01) (48, -1.18096850585937500000e+03) (49, 1.49954541015625000000e+03) (50, 1.49999365234375000000e+03) (51, 1.49987329101562500000e+03) (52, 2.46827529907226562500e+02) (53, 1.49468725585937500000e+03) (33, -9.92053527832031250000e+01) (34, 2.01063613891601562500e+01) (35, 1.49764239788055419922e+00) (36, 2.16940268874168395996e-01) (37, 4.77772712707519531250e-01) (38, -3.54938903808593750000e+02) (39, 7.32035017013549804688e+00) (40, 1.24288597106933593750e+02) (41, 1.18215763568878173828e+00) (42, 1.16333778381347656250e+02) (43, -6.31176456809043884277e-02) (44, 1.10917587280273437500e+02) (45, -1.67247982025146484375e+01) (46, 7.57090711593627929688e+00) (47, 1.63021102547645568848e-01) (48, -5.52314453125000000000e+01) (49, 2.65255236625671386719e+00) (50, -9.95174407958984375000e+00) (51, 1.10117948055267333984e+00) (52, 1.62644112110137939453e+00) (53, 1.27578094601631164551e-01) (33, 2.06156778335571289062e+00) (34, 4.43238128662109375000e+02) (35, 1.98089248657226562500e+02) (36, 1.43860607910156250000e+03) (37, 3.73174514770507812500e+01) (38, 3.59537010192871093750e+01) (39, 1.49941259765625000000e+03) (40, 1.49999780273437500000e+03) (41, 3.80542335510253906250e+01) (42, 2.42758255004882812500e+01) (43, 1.49062792968750000000e+03) (44, 1.46726875305175781250e+01) (45, -1.34209299087524414062e+01) (46, 1.49999633789062500000e+03) (47, -1.44679288864135742188e+01) (48, -6.93038391113281250000e+02) (49, 9.69488281250000000000e+02) (50, 1.49999121093750000000e+03) (51, 2.00753517150878906250e+01) (52, 1.70020980834960937500e+01) (53, 3.12515960693359375000e+02) (33, -6.81620788574218750000e+00) (34, 4.64871582031250000000e+02) (35, 1.15641186523437500000e+03) (36, 2.17885208129882812500e+02) (37, 2.16113185882568359375e+01) (38, 9.76481872558593750000e+02) (39, 1.49941247558593750000e+03) (40, 1.49999780273437500000e+03) (41, 1.48968554687500000000e+03) (42, 3.61338996887207031250e+00) (43, 1.49054699707031250000e+03) (44, 5.67668952941894531250e+01) (45, -9.52452453613281250000e+02) (46, 1.49999597167968750000e+03) (47, -2.39345245361328125000e+01) (48, -3.98004455566406250000e+02) (49, 2.11631515502929687500e+02) (50, 1.49998950195312500000e+03) (51, 9.59836669921875000000e+02) (52, 1.46715869140625000000e+03) (53, 1.49998974609375000000e+03) (33, -3.96268320083618164062e+00) (34, 3.12804889678955078125e+01) (35, 1.49992553710937500000e+03) (36, 1.45344409179687500000e+03) (37, 1.97947978973388671875e+01) (38, 6.55867691040039062500e+01) (39, 1.48797351074218750000e+03) (40, 1.49999780273437500000e+03) (41, 1.49976806640625000000e+03) (42, 2.72274951934814453125e+01) (43, 1.49057946777343750000e+03) (44, 7.94672317504882812500e+01) (45, -1.46892919921875000000e+03) (46, 1.49999633789062500000e+03) (47, -2.01023941040039062500e+02) (48, -7.29154541015625000000e+02) (49, 1.49328039550781250000e+03) (50, 1.49999035644531250000e+03) (51, 2.33093872070312500000e+02) (52, 5.29906892776489257812e+00) (53, 1.49968847656250000000e+03) (33, 4.21695327758789062500e+01) (34, -9.38401639461517333984e-01) (35, -4.93670910596847534180e-01) (36, -7.16715621948242187500e+00) (37, -1.46803857421875000000e+03) (38, -1.68614749908447265625e+01) (39, -3.65248222351074218750e+01) (40, -1.49617370605468750000e+03) (41, -6.28567743301391601562e+00) (42, -1.28929319381713867188e+01) (43, -1.69893829345703125000e+02) (44, -5.31072974205017089844e-01) (45, 2.36409521102905273438e+00) (46, -7.52471733093261718750e+00) (47, 1.49999279785156250000e+03) (48, 1.47577587890625000000e+03) (49, -4.64255619049072265625e+00) (50, -4.07835388183593750000e+01) (51, 1.03053188323974609375e+01) (52, -3.60931816101074218750e+01) (53, -1.25024909973144531250e+01) (54, 5.78189941406250000000e+02) (55, 6.58974731445312500000e+02) (56, 1.49996301269531250000e+03) (57, 1.49995129394531250000e+03) (58, 7.76942968368530273438e+00) (59, -1.09168586730957031250e+02) (60, 1.97675743103027343750e+01) (61, 6.15746545791625976562e+00) (62, 1.10341442871093750000e+03) (63, 1.16761499023437500000e+03) (64, 1.49815075683593750000e+03) (65, 1.49478637695312500000e+03) (66, -1.10979728698730468750e+02) (67, 1.48846972656250000000e+03) (68, 1.48127587890625000000e+03) (69, 4.50455456972122192383e-01) (70, 1.47990234375000000000e+03) (71, 1.86329040527343750000e+02) (72, 1.49481286621093750000e+03) (73, -1.36436109542846679688e+01) (74, 1.44755297851562500000e+03) (54, 1.02702074050903320312e+01) (55, 1.49998852539062500000e+03) (56, 8.09462356567382812500e+00) (57, 5.34980106353759765625e+00) (58, 1.13862785339355468750e+02) (59, 1.36959230899810791016e+00) (60, -1.62766480445861816406e+00) (61, 3.69821518659591674805e-01) (62, 1.49992102050781250000e+03) (63, 1.11173559570312500000e+03) (64, 7.32872695922851562500e+01) (65, 2.93968994140625000000e+02) (66, -8.19012573242187500000e+02) (67, 1.49994335937500000000e+03) (68, 1.49998889160156250000e+03) (69, 1.32136952877044677734e+00) (70, 1.49988891601562500000e+03) (71, 6.81479980468750000000e+02) (72, 1.49981445312500000000e+03) (73, -1.16413566589355468750e+02) (74, 1.48354711914062500000e+03) (54, 1.05295642089843750000e+03) (55, 1.49999340820312500000e+03) (56, 1.49992321777343750000e+03) (57, 1.49994567871093750000e+03) (58, 8.07066726684570312500e+00) (59, -1.69747360229492187500e+02) (60, -9.99546661376953125000e+01) (61, 8.15501785278320312500e+00) (62, 1.49986633300781250000e+03) (63, 1.49999694824218750000e+03) (64, 9.58614135742187500000e+02) (65, 1.49778051757812500000e+03) (66, -5.99696777343750000000e+02) (67, 1.49845996093750000000e+03) (68, 1.49198767089843750000e+03) (69, -1.84340012073516845703e+00) (70, 1.49132531738281250000e+03) (71, 4.50485115051269531250e+01) (72, 1.49779541015625000000e+03) (73, -1.32647705078125000000e+01) (74, 1.47910778808593750000e+03) (54, -2.25631999969482421875e+00) (55, -4.57365751266479492188e-01) (56, 1.01140975952148437500e+00) (57, -1.36670041084289550781e+00) (58, -1.25132656097412109375e+00) (59, 1.40727214813232421875e+01) (60, 6.58030509948730468750e+00) (61, 1.41808719635009765625e+01) (62, -7.81874954700469970703e-01) (63, 1.07667278498411178589e-02) (64, 9.96985495090484619141e-01) (65, -2.98973500728607177734e-01) (66, 1.71964800357818603516e+00) (67, 1.38939381577074527740e-03) (68, -8.44255506992340087891e-01) (69, -6.08550109863281250000e+01) (70, -2.10423678159713745117e-01) (71, 1.25198185443878173828e-01) (72, -3.85315805673599243164e-01) (73, 2.62171745300292968750e+00) (74, 2.19794765114784240723e-01) (54, 1.24907324218750000000e+03) (55, 1.49999108886718750000e+03) (56, 1.49995361328125000000e+03) (57, 1.39739172363281250000e+03) (58, 5.64076042175292968750e+00) (59, -1.23631172180175781250e+02) (60, 1.10730447769165039062e+01) (61, 3.21551437377929687500e+01) (62, 2.08812927246093750000e+02) (63, 1.49999670410156250000e+03) (64, 1.35620678710937500000e+03) (65, 1.21521093750000000000e+03) (66, -1.41503572463989257812e+01) (67, 1.49675915527343750000e+03) (68, 1.49465551757812500000e+03) (69, -3.14879417419433593750e+00) (70, 1.49163867187500000000e+03) (71, 1.14428723144531250000e+03) (72, 1.49784533691406250000e+03) (73, -7.44994640350341796875e+00) (74, 1.47912634277343750000e+03) (54, 4.10852317810058593750e+01) (55, 1.49999145507812500000e+03) (56, 1.49994494628906250000e+03) (57, 1.40680639648437500000e+03) (58, 8.14690876007080078125e+00) (59, -1.12604484558105468750e+02) (60, 2.41556968688964843750e+01) (61, 1.83523941040039062500e+00) (62, 1.30299972534179687500e+02) (63, 1.49999694824218750000e+03) (64, 5.95621093750000000000e+02) (65, 1.49783422851562500000e+03) (66, -1.01448669433593750000e+01) (67, 1.49508264160156250000e+03) (68, 1.49197546386718750000e+03) (69, 1.05972635746002197266e+00) (70, 1.49271594238281250000e+03) (71, 1.41435592651367187500e+02) (72, 1.49784875488281250000e+03) (73, -1.01208813476562500000e+03) (74, 1.44848144531250000000e+03) (54, 3.07994270324707031250e+00) (55, 1.49999340820312500000e+03) (56, 7.95679168701171875000e+01) (57, 1.73724949359893798828e+00) (58, 2.79051910400390625000e+02) (59, 1.86092925071716308594e+00) (60, -5.34339904785156250000e-01) (61, 2.16615512967109680176e-01) (62, 2.87565673828125000000e+02) (63, 5.66359008789062500000e+02) (64, 4.15827850341796875000e+02) (65, 1.09023559570312500000e+02) (66, -4.64081239700317382812e+00) (67, 1.49977575683593750000e+03) (68, 2.49117431640625000000e+02) (69, -1.37366402149200439453e+00) (70, 1.22192651367187500000e+03) (71, 4.27479461669921875000e+02) (72, 1.49989978027343750000e+03) (73, -4.72399635314941406250e+01) (74, 1.49649523925781250000e+03) (54, 1.13911094665527343750e+01) (55, -9.93829822540283203125e+00) (56, 6.32643203735351562500e+01) (57, 2.08976097106933593750e+01) (58, -1.02300322055816650391e+00) (59, -5.19453491210937500000e+02) (60, -8.24101486206054687500e+01) (61, -1.31942428588867187500e+02) (62, 1.27004968261718750000e+03) (63, 2.03580963134765625000e+02) (64, 5.23877624511718750000e+02) (65, 1.49751403808593750000e+03) (66, -2.90772318840026855469e+00) (67, 1.49697509765625000000e+03) (68, 7.58708557128906250000e+02) (69, 5.00890197753906250000e+01) (70, 4.66950492858886718750e+01) (71, 2.69833583831787109375e+01) (72, 1.49697314453125000000e+03) (73, -3.08764725923538208008e-01) (74, 2.84450592041015625000e+02) (54, -9.14614140987396240234e-01) (55, 3.29016029834747314453e-01) (56, 2.37602539062500000000e+01) (57, 5.70550680160522460938e-01) (58, 7.92610049247741699219e-01) (59, -2.73957595825195312500e+01) (60, 7.87162017822265625000e+01) (61, -9.58010077476501464844e-01) (62, 1.78193016052246093750e+01) (63, 2.07557702064514160156e+00) (64, 1.09101924896240234375e+01) (65, 3.25480198860168457031e+00) (66, 2.01328063011169433594e+00) (67, 5.22067213058471679688e+00) (68, 1.18023085594177246094e+00) (69, -6.38034641742706298828e-01) (70, 1.70693695545196533203e+00) (71, 1.85585289001464843750e+01) (72, 9.66306984424591064453e-01) (73, -1.50638628005981445312e+00) (74, 1.16071586608886718750e+01) (54, -1.99655592441558837891e+00) (55, -1.45005071163177490234e+00) (56, 2.88569164276123046875e+00) (57, -7.96897590160369873047e-01) (58, -2.81811684370040893555e-01) (59, 1.11314086914062500000e+01) (60, -5.76199710369110107422e-01) (61, 1.35968809127807617188e+01) (62, -1.59800142049789428711e-01) (63, -7.30419993400573730469e-01) (64, -6.94106295704841613770e-02) (65, 3.06188702583312988281e-01) (66, 1.14560377597808837891e+00) (67, -4.57498550415039062500e-01) (68, -5.88416397571563720703e-01) (69, 2.63751459121704101562e+00) (70, -8.71385753154754638672e-01) (71, -3.27828437089920043945e-01) (72, -5.09212374687194824219e-01) (73, 2.29164886474609375000e+00) (74, -4.39395427703857421875e-01) (54, 8.51119041442871093750e+00) (55, 2.58898377418518066406e+00) (56, 7.56925821304321289062e+00) (57, 1.36811771392822265625e+01) (58, 7.21178865432739257812e+00) (59, 1.03612768650054931641e+00) (60, 7.92823612689971923828e-01) (61, -2.55217790603637695312e+00) (62, 1.39485824108123779297e+00) (63, 6.19016706943511962891e-01) (64, 8.76814556121826171875e+00) (65, 1.59159409999847412109e+00) (66, 1.12427341938018798828e+00) (67, 2.07879590988159179688e+00) (68, 1.53997075557708740234e+00) (69, 5.32286882400512695312e-01) (70, -4.12675231695175170898e-01) (71, 2.21895337104797363281e+00) (72, 1.88533020019531250000e+00) (73, 6.64725294336676597595e-03) (74, -1.35281813144683837891e+00) (54, 5.09335556030273437500e+01) (55, 1.15014581680297851562e+01) (56, 1.49997399902343750000e+03) (57, 1.49993322753906250000e+03) (58, 1.44533176422119140625e+01) (59, -2.57772430419921875000e+02) (60, 2.84577922821044921875e+01) (61, 2.41158676147460937500e+00) (62, 7.48205871582031250000e+02) (63, 1.49999719238281250000e+03) (64, 7.94558776855468750000e+02) (65, 3.87286621093750000000e+02) (66, -1.06537313461303710938e+01) (67, 1.08822204589843750000e+03) (68, 1.49048937988281250000e+03) (69, -1.94700562953948974609e+00) (70, 4.64152709960937500000e+02) (71, 1.56597585678100585938e+01) (72, 1.49763793945312500000e+03) (73, -1.41268783569335937500e+02) (74, 1.46662268066406250000e+03) (54, -4.03372257947921752930e-01) (55, 4.80880886316299438477e-02) (56, 5.29511153697967529297e-01) (57, -1.62999296188354492188e+00) (58, -2.61812731623649597168e-02) (59, 1.77617435455322265625e+01) (60, 3.50133967399597167969e+00) (61, 2.49762554168701171875e+01) (62, -1.18076846003532409668e-01) (63, 3.31556610763072967529e-02) (64, 8.87459099292755126953e-01) (65, -5.42848348617553710938e-01) (66, 1.12384402751922607422e+00) (67, 1.97439387440681457520e-01) (68, -3.68630617856979370117e-01) (69, 4.55339546203613281250e+01) (70, 9.68956425786018371582e-02) (71, -1.31642806529998779297e+00) (72, -1.39987036585807800293e-01) (73, 3.07495665550231933594e+00) (74, -1.73257803916931152344e+00) (54, 5.57171508789062500000e+02) (55, 1.60400085449218750000e+02) (56, 1.49996069335937500000e+03) (57, 1.49995190429687500000e+03) (58, 1.66614570617675781250e+01) (59, -3.74908447265625000000e+02) (60, 2.16442203521728515625e+01) (61, 2.39117765426635742188e+00) (62, 1.21169274902343750000e+03) (63, 1.45292626953125000000e+03) (64, 1.33858105468750000000e+03) (65, 1.49531237792968750000e+03) (66, -1.96021823883056640625e+01) (67, 8.71887878417968750000e+02) (68, 1.48500048828125000000e+03) (69, 1.52312374114990234375e+00) (70, 2.82511688232421875000e+02) (71, 9.10108093261718750000e+02) (72, 1.49533605957031250000e+03) (73, -8.65563812255859375000e+01) (74, 1.46881726074218750000e+03) (54, 5.53221862792968750000e+02) (55, 1.22520980834960937500e+01) (56, 1.49996154785156250000e+03) (57, 1.49993298339843750000e+03) (58, 4.17705583572387695312e+00) (59, -2.59325531005859375000e+02) (60, 1.50309188842773437500e+02) (61, 5.80436468124389648438e-01) (62, 9.34145965576171875000e+01) (63, 4.29831695556640625000e+02) (64, 3.30199401855468750000e+02) (65, 1.49762622070312500000e+03) (66, -4.98672199249267578125e+00) (67, 1.49414624023437500000e+03) (68, 1.49048498535156250000e+03) (69, 1.37919139862060546875e+00) (70, 1.49085144042968750000e+03) (71, 1.12116088867187500000e+01) (72, 1.49763281250000000000e+03) (73, -8.33776184082031250000e+02) (74, 1.44842749023437500000e+03) (54, 1.06077880859375000000e+01) (55, 1.54186620712280273438e+01) (56, 8.00616836547851562500e+00) (57, 1.66925678253173828125e+01) (58, 1.48831924438476562500e+02) (59, -4.99175376892089843750e+01) (60, 8.92278213500976562500e+01) (61, -7.49889709472656250000e+02) (62, 7.05337219238281250000e+02) (63, 9.01776123046875000000e+00) (64, 3.40111207962036132812e+00) (65, 1.86500244140625000000e+01) (66, -1.06149730682373046875e+01) (67, 7.77195930480957031250e+00) (68, 1.93923115730285644531e+00) (69, 1.25347633361816406250e+01) (70, 4.65036773681640625000e+00) (71, 5.84924774169921875000e+01) (72, 3.48879361152648925781e+00) (73, -1.73791561126708984375e+01) (74, 1.07574663162231445312e+01) (54, 2.56729632616043090820e-01) (55, 1.95794925093650817871e-01) (56, 4.05182456970214843750e+00) (57, -4.84773397445678710938e+00) (58, -1.48456203937530517578e+00) (59, 2.71203422546386718750e+01) (60, 7.05899238586425781250e+00) (61, -4.29504203796386718750e+01) (62, -5.25211393833160400391e-01) (63, -1.71837687492370605469e-01) (64, 6.82789325714111328125e-01) (65, -7.30229139328002929688e-01) (66, 2.93313980102539062500e+00) (67, -1.46652472019195556641e+00) (68, -6.41114950180053710938e-01) (69, 1.67887687683105468750e+00) (70, -4.83162832260131835938e+00) (71, 3.61546166241168975830e-02) (72, 3.88105154037475585938e-01) (73, 2.18590283393859863281e+00) (74, 3.52550458908081054688e+00) (54, -2.41768875122070312500e+01) (55, -8.10199379920959472656e-01) (56, -7.92348265647888183594e-01) (57, -3.67842590332031250000e+02) (58, -4.12780570983886718750e+01) (59, 8.10021911621093750000e+02) (60, 1.46796948242187500000e+03) (61, 1.05213110351562500000e+03) (62, -9.46120917797088623047e-01) (63, -8.32311749458312988281e-01) (64, 2.92931628227233886719e+00) (65, 3.48553955554962158203e-01) (66, 2.02299022674560546875e+01) (67, -3.33788663148880004883e-01) (68, 1.34034782648086547852e-01) (69, -3.98473052978515625000e+02) (70, -1.76172554492950439453e-01) (71, -8.56022357940673828125e-01) (72, -1.14044427871704101562e+00) (73, 4.55411052703857421875e+00) (74, -1.92518210411071777344e+00) (54, -2.32572579383850097656e+00) (55, -1.11446142196655273438e+00) (56, 2.89156017303466796875e+01) (57, -2.78199839591979980469e+00) (58, -2.96257066726684570312e+00) (59, 5.13116333007812500000e+02) (60, 2.44670319557189941406e+00) (61, -1.95678663253784179688e+00) (62, -4.61945384740829467773e-01) (63, -5.59459567070007324219e-01) (64, 1.42125656127929687500e+02) (65, -4.69161653518676757812e+00) (66, 3.22234368324279785156e+00) (67, -1.07847154140472412109e+00) (68, -1.10238242149353027344e+00) (69, 3.54962921142578125000e+02) (70, 9.34756640344858169556e-03) (71, 2.15342398732900619507e-02) (72, -4.36356604099273681641e-01) (73, 2.24468135833740234375e+00) (74, -2.07308077812194824219e+00) (54, 1.49998840332031250000e+03) (55, 1.49999328613281250000e+03) (56, 1.49997412109375000000e+03) (57, 1.49995471191406250000e+03) (58, 7.70274817943572998047e-01) (59, -9.19148483276367187500e+01) (60, 7.76410627365112304688e+00) (61, -7.46147155761718750000e+00) (62, 4.19355834960937500000e+02) (63, 4.16357360839843750000e+02) (64, 1.49983984375000000000e+03) (65, 1.49973925781250000000e+03) (66, -7.73730773925781250000e+01) (67, 5.12567626953125000000e+02) (68, 1.49721630859375000000e+03) (69, -3.95376396179199218750e+00) (70, 2.49691276550292968750e+01) (71, 1.49999719238281250000e+03) (72, 1.49974841308593750000e+03) (73, -1.60803279876708984375e+01) (74, 1.48968347167968750000e+03) (75, 3.43825531005859375000e+01) (76, 1.39509611129760742188e+01) (77, 1.30098886489868164062e+01) (78, -2.37922215461730957031e+00) (79, 2.54045829772949218750e+01) (80, 6.91497278213500976562e+00) (81, 3.42592124938964843750e+01) (82, 1.40197113037109375000e+02) (83, -1.35340156555175781250e+01) (84, -3.79047126770019531250e+01) (85, 1.51101398468017578125e+00) (86, 5.33471965789794921875e+00) (87, -5.03891420364379882812e+00) (88, 2.31493129730224609375e+01) (89, 3.18834877014160156250e+00) (90, 2.74536132812500000000e+00) (91, -7.49239807128906250000e+02) (92, -4.80525512695312500000e+01) (93, -9.87190490722656250000e+02) (94, 4.95960235595703125000e+00) (95, 1.03284540176391601562e+01) (75, 1.49748278808593750000e+03) (76, 1.49040039062500000000e+03) (77, 1.48989257812500000000e+03) (78, 2.37078219652175903320e-01) (79, 1.49748657226562500000e+03) (80, 1.48992602539062500000e+03) (81, 1.48992163085937500000e+03) (82, 1.48989208984375000000e+03) (83, 5.96201744079589843750e+01) (84, -1.40251314640045166016e+00) (85, 7.15478363037109375000e+01) (86, 1.48986010742187500000e+03) (87, 2.16813325881958007812e+00) (88, 1.49745703125000000000e+03) (89, 1.49748364257812500000e+03) (90, 4.19486877441406250000e+02) (91, 2.15265670776367187500e+02) (92, -2.99051046371459960938e-01) (93, 1.86905456542968750000e+02) (94, 4.46569122314453125000e+02) (95, 1.48618200683593750000e+03) (75, 8.64382743835449218750e+00) (76, 4.29739427566528320312e+00) (77, 3.82199645042419433594e+00) (78, -3.42806488275527954102e-01) (79, 2.71374835968017578125e+01) (80, 2.83594779968261718750e+01) (81, 4.77354202270507812500e+01) (82, 2.69069266319274902344e+00) (83, 2.86756038665771484375e+01) (84, -1.49980902671813964844e-01) (85, 1.35430085659027099609e+00) (86, 4.73016929626464843750e+00) (87, -6.73683166503906250000e-01) (88, 3.84307837486267089844e+00) (89, 3.53703689575195312500e+01) (90, 3.24236750602722167969e-01) (91, 1.43237476348876953125e+01) (92, 8.09496879577636718750e-01) (93, 7.50810670852661132812e+00) (94, 8.52608108520507812500e+00) (95, 4.11319580078125000000e+01) (75, 2.18476796150207519531e+00) (76, 3.83784127235412597656e+00) (77, 2.16756725311279296875e+00) (78, -5.84748535156250000000e+02) (79, 1.41470515727996826172e+00) (80, 1.90489006042480468750e+00) (81, 1.68941581249237060547e+00) (82, 1.51581516265869140625e+01) (83, 1.83595860004425048828e+00) (84, -1.46742639160156250000e+03) (85, 2.06834506988525390625e+00) (86, 1.98041832447052001953e+00) (87, -1.18249900817871093750e+02) (88, 2.25709342956542968750e+00) (89, 2.18718791007995605469e+00) (90, 7.72529959678649902344e-01) (91, 3.32560688257217407227e-01) (92, -1.47601135253906250000e+03) (93, 3.62949204444885253906e+00) (94, 1.50304794311523437500e+00) (95, -9.50503408908843994141e-01) (75, 8.69623064994812011719e-01) (76, 7.97076821327209472656e-01) (77, 7.99267664551734924316e-02) (78, 3.66272468566894531250e+01) (79, 7.18893468379974365234e-01) (80, -6.11593902111053466797e-01) (81, 6.92621648311614990234e-01) (82, -1.48911088705062866211e-01) (83, 4.16347205638885498047e-01) (84, 7.05871522426605224609e-01) (85, 1.60190835595130920410e-02) (86, 1.52043193578720092773e-01) (87, 2.06501889228820800781e+00) (88, 1.97374537587165832520e-01) (89, 7.98250496387481689453e-01) (90, -2.31485813856124877930e-01) (91, 1.63554430007934570312e+00) (92, 3.84356956481933593750e+01) (93, 3.60179948806762695312e+00) (94, -3.61947149038314819336e-01) (95, -8.78856599330902099609e-01) (75, 7.04251050949096679688e-01) (76, 1.33883357048034667969e+00) (77, 1.66621065139770507812e+00) (78, 1.02799832820892333984e+00) (79, 3.85505652427673339844e+00) (80, 1.66706597805023193359e+00) (81, 3.47522854804992675781e+00) (82, 3.27180099487304687500e+00) (83, 1.54326033592224121094e+00) (84, -3.21971118450164794922e-01) (85, 1.17228233814239501953e+00) (86, 2.79778480529785156250e+00) (87, 9.35395479202270507812e-01) (88, 1.91321349143981933594e+00) (89, 1.90590333938598632812e+00) (90, 6.96902418136596679688e+00) (91, 2.17148132324218750000e+01) (92, -1.05563402175903320312e+00) (93, -8.96872043609619140625e-01) (94, 1.66462898254394531250e+00) (95, 3.24661993980407714844e+00) (75, -5.24063944816589355469e-01) (76, 7.28548407554626464844e-01) (77, -6.45865261554718017578e-01) (78, -4.24648135900497436523e-01) (79, 4.82214242219924926758e-01) (80, -1.81325531005859375000e+00) (81, 8.95783752202987670898e-02) (82, -1.71721860766410827637e-01) (83, 6.76020741462707519531e-01) (84, 2.26677611470222473145e-01) (85, -8.14099967479705810547e-01) (86, -4.13111567497253417969e-01) (87, 5.34107804298400878906e-01) (88, -7.55917072296142578125e-01) (89, 1.01546924561262130737e-02) (90, -3.38441443443298339844e+00) (91, -1.21968612074851989746e-01) (92, -1.61455082893371582031e+00) (93, -1.27412045001983642578e+00) (94, -1.24544990062713623047e+00) (95, 5.71477603912353515625e+00) (75, -6.62356615066528320312e-01) (76, -1.47966474294662475586e-01) (77, -9.45178151130676269531e-01) (78, 9.12032890319824218750e+00) (79, -6.47001564502716064453e-01) (80, -1.02384066581726074219e+00) (81, 1.27017488703131675720e-02) (82, -1.22033774852752685547e-01) (83, -1.64968001842498779297e+00) (84, -9.58806946873664855957e-02) (85, 1.46911114454269409180e-01) (86, -5.58318614959716796875e-01) (87, 5.30274093151092529297e-01) (88, -1.32200372219085693359e+00) (89, -9.39146459102630615234e-01) (90, 8.40776190161705017090e-02) (91, 1.37788093090057373047e+00) (92, 6.13837420940399169922e-01) (93, 4.41122800111770629883e-01) (94, 6.33999764919281005859e-01) (95, 3.71033310890197753906e-01) (75, 1.34686306118965148926e-01) (76, 6.88275158405303955078e-01) (77, -2.28055506944656372070e-01) (78, -3.08189213275909423828e-01) (79, 1.22852957248687744141e+00) (80, 5.45863032341003417969e-01) (81, 1.39841282367706298828e+00) (82, 9.11148965358734130859e-01) (83, 7.31769025325775146484e-01) (84, 1.20986926555633544922e+00) (85, 3.03319168090820312500e+00) (86, -3.99789512157440185547e-01) (87, 9.91912841796875000000e-01) (88, 6.57056808471679687500e-01) (89, -4.22969400882720947266e-01) (90, -3.46626281738281250000e-01) (91, -7.05924928188323974609e-01) (92, 8.58149349689483642578e-01) (93, -2.89127445220947265625e+00) (94, -4.66669574379920959473e-02) (95, 5.96199989318847656250e-01) (75, 8.83499443531036376953e-01) (76, 1.13153147697448730469e+00) (77, 1.11794555187225341797e+00) (78, -9.17938530445098876953e-01) (79, 1.44690334796905517578e+00) (80, 4.22936379909515380859e-01) (81, 1.60572946071624755859e+00) (82, 2.33519062399864196777e-01) (83, 3.37107110023498535156e+00) (84, 1.41287446022033691406e+00) (85, 2.83500462770462036133e-01) (86, 1.26682150363922119141e+00) (87, -1.80128440856933593750e+01) (88, 6.81453227996826171875e-01) (89, -3.96499007940292358398e-01) (90, 4.29968738555908203125e+00) (91, 5.67742013931274414062e+00) (92, -6.14859700202941894531e-01) (93, 1.04810285568237304688e+00) (94, -1.12806536257266998291e-01) (95, 8.34841430187225341797e-01) (75, 3.47410736083984375000e+01) (76, 1.47940734863281250000e+03) (77, 1.07494293212890625000e+02) (78, -3.43538932800292968750e+01) (79, 1.31803283691406250000e+02) (80, 3.96933674812316894531e+00) (81, 1.14844934082031250000e+03) (82, 2.51839089393615722656e+00) (83, 1.63636016845703125000e+00) (84, -5.04287815093994140625e+00) (85, 5.47188720703125000000e+01) (86, 3.10279011726379394531e+00) (87, -1.91732006072998046875e+01) (88, 4.31170225143432617188e+00) (89, 1.20759773254394531250e+01) (90, 1.02008003234863281250e+02) (91, -7.41039733886718750000e+01) (92, -2.36364150047302246094e+00) (93, 2.20930957794189453125e+00) (94, 1.37699186801910400391e+00) (95, 7.06687316894531250000e+01) (75, 1.44071435928344726562e+00) (76, -6.58515214920043945312e-01) (77, 9.81261312961578369141e-01) (78, 6.59465503692626953125e+00) (79, 5.05649864673614501953e-01) (80, 1.70570826530456542969e+00) (81, 1.13913297653198242188e+00) (82, 1.53021013736724853516e+00) (83, 3.45269536972045898438e+00) (84, -1.12724769115447998047e+00) (85, 1.04926145076751708984e+00) (86, 1.31279528141021728516e+00) (87, 5.05098962783813476562e+00) (88, 1.70219743251800537109e+00) (89, 1.92981064319610595703e+00) (90, 6.30267202854156494141e-01) (91, -3.07930577546358108521e-02) (92, 2.69798576831817626953e-01) (93, 2.31191563606262207031e+00) (94, 1.99999284744262695312e+00) (95, 1.01800453662872314453e+00) (75, 1.43024277687072753906e+00) (76, -1.80778050422668457031e+00) (77, 7.47653305530548095703e-01) (78, 2.68082499504089355469e-01) (79, -7.37546622753143310547e-01) (80, 1.31779408454895019531e+00) (81, -6.77676856517791748047e-01) (82, -1.02098727226257324219e+00) (83, 9.57617983222007751465e-02) (84, 2.36119061708450317383e-01) (85, 3.08364540338516235352e-01) (86, 7.94593334197998046875e-01) (87, 3.59309732913970947266e-01) (88, 1.39115190505981445312e+00) (89, 6.06081426143646240234e-01) (90, 5.20231314003467559814e-02) (91, 5.98590135574340820312e-01) (92, 2.15297174453735351562e+00) (93, 3.23289722204208374023e-01) (94, 6.88237965106964111328e-01) (95, -3.89186859130859375000e-01) (75, 2.84190726280212402344e+00) (76, 8.47571611404418945312e-01) (77, 2.17224550247192382812e+00) (78, -1.19083440303802490234e+00) (79, 1.56886613368988037109e+00) (80, 1.25829243659973144531e+00) (81, 1.58135509490966796875e+00) (82, 2.70045375823974609375e+00) (83, 1.13479638099670410156e+00) (84, 2.70102964714169502258e-03) (85, 5.05290079116821289062e+00) (86, 1.50154912471771240234e+00) (87, 1.55545294284820556641e-01) (88, 2.18194389343261718750e+00) (89, 1.79524219036102294922e+00) (90, 2.82427340745925903320e-01) (91, 1.95373165607452392578e+00) (92, 2.20801651477813720703e-01) (93, -9.02568244934082031250e+00) (94, 7.33216881752014160156e-01) (95, -3.40754246711730957031e+00) (75, 1.41036200523376464844e+00) (76, -3.74389976263046264648e-01) (77, 1.80986142158508300781e+00) (78, 7.68767654895782470703e-01) (79, 6.62287414073944091797e-01) (80, 1.28328263759613037109e+00) (81, 2.12329578399658203125e+00) (82, 3.16095590591430664062e+00) (83, 1.69475150108337402344e+00) (84, 1.44221231341361999512e-01) (85, 1.77188646793365478516e+00) (86, 9.50727760791778564453e-01) (87, -1.62542557716369628906e+00) (88, 1.29416048526763916016e+00) (89, 7.78900206089019775391e-01) (90, 1.34124147891998291016e+00) (91, 1.36366529464721679688e+01) (92, 2.84192651510238647461e-01) (93, 1.53018558025360107422e+00) (94, 1.64341294765472412109e+00) (95, 7.75950574874877929688e+00) (75, -6.36786878108978271484e-01) (76, 4.41074514389038085938e+00) (77, 4.14863443374633789062e+00) (78, 1.75201320648193359375e+01) (79, -1.20883417129516601562e+00) (80, -2.14746022224426269531e+00) (81, 1.13903102874755859375e+01) (82, 2.73652720451354980469e+00) (83, 1.33368194580078125000e+02) (84, 9.18005905151367187500e+01) (85, -2.42100677490234375000e+01) (86, 2.29620027542114257812e+00) (87, 4.63744163513183593750e+00) (88, 8.17240834236145019531e-01) (89, -7.44271814823150634766e-01) (90, 4.54104518890380859375e+00) (91, -3.26866683959960937500e+01) (92, 8.98408353328704833984e-01) (93, 2.63604283332824707031e+00) (94, 1.19139156341552734375e+01) (95, -5.96558272838592529297e-01) (75, 1.99669092893600463867e-01) (76, 1.18295562267303466797e+00) (77, 7.86590695381164550781e-01) (78, -1.72755345702171325684e-01) (79, -2.41851344704627990723e-01) (80, 2.64292150735855102539e-01) (81, -7.29151129722595214844e-01) (82, -6.73510134220123291016e-02) (83, 2.20074176788330078125e-01) (84, 1.05171847343444824219e+00) (85, 6.02141380310058593750e-01) (86, -9.54739525914192199707e-02) (87, 4.69162017107009887695e-01) (88, 4.86749976873397827148e-01) (89, -2.47192710638046264648e-01) (90, 4.67545956373214721680e-01) (91, 4.22968327999114990234e-01) (92, -7.78381168842315673828e-01) (93, 3.48982661962509155273e-01) (94, -3.43935132026672363281e-01) (95, -1.49337160587310791016e+00) (75, 1.10906398296356201172e+00) (76, 1.48706436157226562500e+00) (77, 5.77774226665496826172e-01) (78, 3.95666182041168212891e-01) (79, 1.32604527473449707031e+00) (80, 1.46440815925598144531e+00) (81, 1.39746129512786865234e+00) (82, 1.26930606365203857422e+00) (83, 2.33449697494506835938e+00) (84, -2.39667072892189025879e-01) (85, 7.30954647064208984375e-01) (86, 2.11977314949035644531e+00) (87, 1.68686419725418090820e-01) (88, 1.55686390399932861328e+00) (89, 7.95760273933410644531e-01) (90, 1.11240339279174804688e+00) (91, 3.27035999298095703125e+00) (92, 3.02718520164489746094e-01) (93, 6.27989292144775390625e-01) (94, 1.96214342117309570312e+00) (95, 1.79932880401611328125e+00) (75, 3.46037960052490234375e+00) (76, 1.22405755519866943359e+00) (77, 1.59299695491790771484e+00) (78, 1.01086330413818359375e+00) (79, 3.13389563560485839844e+00) (80, 2.26013159751892089844e+00) (81, 3.37404561042785644531e+00) (82, 1.31905581802129745483e-02) (83, 4.31051826477050781250e+00) (84, -2.98205137252807617188e-01) (85, 1.02016901969909667969e+00) (86, 2.34254837036132812500e+00) (87, 8.97700309753417968750e-01) (88, 1.11562561988830566406e+00) (89, 1.43296253681182861328e+00) (90, 1.72159087657928466797e+00) (91, 2.08222484588623046875e+00) (92, 8.78861367702484130859e-01) (93, 4.29678469896316528320e-01) (94, 7.31289386749267578125e-01) (95, 7.90323066711425781250e+00) (75, 4.13605451583862304688e-01) (76, 5.21228432655334472656e-01) (77, 8.02593529224395751953e-01) (78, 4.31010055541992187500e+00) (79, 2.79094791412353515625e+00) (80, 3.02749514579772949219e+00) (81, 1.54656028747558593750e+00) (82, 1.36576998233795166016e+00) (83, 1.12673330307006835938e+00) (84, -1.57125160098075866699e-01) (85, -4.59921419620513916016e-01) (86, 6.59936726093292236328e-01) (87, 6.42040395736694335938e+00) (88, 2.00260972976684570312e+00) (89, 3.28684258460998535156e+00) (90, 1.11827421188354492188e+00) (91, 2.46139836311340332031e+00) (92, 1.72419846057891845703e+00) (93, -1.77459940314292907715e-01) (94, 3.64903020858764648438e+00) (95, 1.84614539146423339844e+00) (96, -2.61175036430358886719e-01) (97, -7.20674037933349609375e-01) (98, -7.44143545627593994141e-01) (99, -1.07371389865875244141e+00) (100, -2.15448096394538879395e-01) (101, -6.19593799114227294922e-01) (102, 2.41305232048034667969e+00) (103, 2.34089851379394531250e+00) (104, 1.02361762523651123047e+00) (105, 5.00056505203247070312e-01) (106, -5.96112728118896484375e-01) (107, 2.68531411886215209961e-01) (108, -1.33530235290527343750e+01) (109, -9.37746524810791015625e-01) (110, 7.24039852619171142578e-01) (111, -6.44085168838500976562e-01) (112, 3.97518467903137207031e+00) (113, 1.52848109602928161621e-01) (114, -2.00279429554939270020e-01) (115, -3.89573514461517333984e-01) (116, 6.63065195083618164062e-01) (96, 2.82425165176391601562e+00) (97, 2.04330518841743469238e-01) (98, 1.05444276332855224609e+00) (99, 1.53975021839141845703e+00) (100, 2.94343161582946777344e+00) (101, 8.58449280261993408203e-01) (102, 1.23285174369812011719e+00) (103, 5.74509084224700927734e-01) (104, 4.84735918045043945312e+00) (105, 1.82895123958587646484e+00) (106, 1.15726959705352783203e+00) (107, 1.51563692092895507812e+00) (108, 2.68659043312072753906e+00) (109, 9.07218337059020996094e-01) (110, 1.23204028606414794922e+00) (111, 1.10431861877441406250e+00) (112, 1.50966749191284179688e+01) (113, 1.25563764572143554688e+00) (114, 2.56298035383224487305e-01) (115, 1.16138172149658203125e+00) (116, 1.33265018463134765625e-01) (96, 1.56965947151184082031e+00) (97, -7.92258232831954956055e-02) (98, 3.48247826099395751953e-01) (99, 5.86822867393493652344e-01) (100, -2.42399945855140686035e-01) (101, -4.10867661237716674805e-01) (102, 3.24426501989364624023e-01) (103, 7.40603029727935791016e-01) (104, 4.00651752948760986328e-01) (105, -4.61145155131816864014e-02) (106, 6.62984848022460937500e-01) (107, 5.29354691505432128906e-01) (108, -1.93181884288787841797e+00) (109, 5.07799148559570312500e-01) (110, 4.30478975176811218262e-02) (111, -2.52901792526245117188e-01) (112, -2.80321764945983886719e+00) (113, 4.20229434967041015625e-01) (114, 4.09837484359741210938e-01) (115, 1.06861782073974609375e+00) (116, 2.94059491157531738281e+00) (96, 7.71027565002441406250e-01) (97, 7.59241461753845214844e-01) (98, 5.83714425563812255859e-01) (99, -1.14266741275787353516e+00) (100, 3.13681054115295410156e+00) (101, 6.11156105995178222656e-01) (102, -4.70134280622005462646e-02) (103, 2.47506666183471679688e+00) (104, -1.64533424377441406250e+00) (105, -1.60323292016983032227e-01) (106, -2.69533842802047729492e-01) (107, 6.52258455753326416016e-01) (108, 3.73994088172912597656e+00) (109, 8.41041266918182373047e-01) (110, 8.24503481388092041016e-01) (111, 1.41386854648590087891e+00) (112, 1.74584317207336425781e+00) (113, 2.46890559792518615723e-01) (114, -4.39040482044219970703e-01) (115, 8.70722711086273193359e-01) (116, -5.73642134666442871094e-01) (96, 7.16597437858581542969e-01) (97, 8.23799371719360351562e-01) (98, 3.37919533252716064453e-01) (99, 3.37806177139282226562e+00) (100, 5.98433136940002441406e-01) (101, 1.29636466503143310547e+00) (102, 9.72322106361389160156e-01) (103, 1.42801776528358459473e-01) (104, 1.88695697784423828125e+01) (105, 1.69924628734588623047e+00) (106, 5.44442653656005859375e-01) (107, 5.36998212337493896484e-01) (108, 1.17532813549041748047e+00) (109, 1.57895147800445556641e+00) (110, 1.22687339782714843750e+00) (111, 6.88834607601165771484e-01) (112, 3.61762123107910156250e+01) (113, 1.41017818450927734375e+00) (114, 1.43023598194122314453e+00) (115, 9.00773108005523681641e-01) (116, 1.31925702095031738281e+00) (96, 1.06888580322265625000e+00) (97, 7.55168437957763671875e-01) (98, 1.76377713680267333984e+00) (99, 1.58636868000030517578e+00) (100, 1.18834185600280761719e+00) (101, 8.27429592609405517578e-01) (102, 1.48948645591735839844e+00) (103, 3.59620094299316406250e-01) (104, 2.29970765113830566406e+00) (105, 1.77241361141204833984e+00) (106, 1.20300340652465820312e+00) (107, 6.51575922966003417969e-01) (108, 2.63491415977478027344e+00) (109, 7.82658815383911132812e-01) (110, 1.59995460510253906250e+00) (111, 2.14118671417236328125e+00) (112, 8.09945774078369140625e+00) (113, 2.31395512819290161133e-01) (114, 4.06051039695739746094e-01) (115, 3.78137916326522827148e-01) (116, -1.28264892101287841797e+00) (96, 3.31951451301574707031e+00) (97, 1.06385087966918945312e+00) (98, 1.36436843872070312500e+00) (99, 2.18571496009826660156e+00) (100, 6.43387258052825927734e-01) (101, 3.12363114207983016968e-02) (102, 7.31602251529693603516e-01) (103, 1.27108669281005859375e+00) (104, -1.53639614582061767578e-01) (105, 7.75652229785919189453e-01) (106, 7.54040062427520751953e-01) (107, 1.13816714286804199219e+00) (108, 2.08412361145019531250e+01) (109, 1.39159047603607177734e+00) (110, 1.34004509449005126953e+00) (111, 2.66416370868682861328e-01) (112, -4.48098182678222656250e+00) (113, -9.61092710494995117188e-02) (114, 1.38394141197204589844e+00) (115, 6.36604785919189453125e-01) (116, -4.15121197700500488281e-01) (96, 1.01304411888122558594e+00) (97, -3.89478057622909545898e-01) (98, 1.33520221710205078125e+00) (99, 1.75015783309936523438e+00) (100, 6.49675548076629638672e-01) (101, 1.42537891864776611328e+00) (102, -5.42998969554901123047e-01) (103, -1.30583256483078002930e-01) (104, -1.33989226818084716797e+00) (105, 5.40756821632385253906e-01) (106, 9.77768301963806152344e-01) (107, 1.27805018424987792969e+00) (108, 1.50965423583984375000e+01) (109, 8.60001266002655029297e-01) (110, 1.44551485776901245117e-01) (111, 1.59586489200592041016e+00) (112, 7.15454721450805664062e+00) (113, 1.31882324814796447754e-01) (114, 1.22615849971771240234e+00) (115, 1.12395095825195312500e+00) (116, -4.22745674848556518555e-01) (96, 3.36809730529785156250e+00) (97, 7.70680129528045654297e-01) (98, 8.35737287998199462891e-01) (99, 2.61373448371887207031e+00) (100, 1.81320345401763916016e+00) (101, 1.47930204868316650391e+00) (102, 1.28018712997436523438e+00) (103, -1.88306570053100585938e-02) (104, 3.11573290824890136719e+00) (105, 5.04865884780883789062e-01) (106, 1.19020938873291015625e+00) (107, 1.19345033168792724609e+00) (108, 6.66489267349243164062e+00) (109, 1.52612102031707763672e+00) (110, 1.44045042991638183594e+00) (111, 2.23835277557373046875e+00) (112, 1.36808652877807617188e+01) (113, 3.14183086156845092773e-01) (114, 1.48209941387176513672e+00) (115, 5.01446127891540527344e-01) (116, 1.44777238368988037109e-01) (96, 2.36126661300659179688e-01) (97, -5.42579255998134613037e-02) (98, 9.85521554946899414062e-01) (99, 3.79168987274169921875e-01) (100, 1.22439038753509521484e+00) (101, 1.05301761627197265625e+00) (102, 9.48842704296112060547e-01) (103, 8.58967483043670654297e-01) (104, 2.36788463592529296875e+00) (105, 2.59333342313766479492e-01) (106, 9.99099910259246826172e-01) (107, 9.67203378677368164062e-01) (108, 1.08649599552154541016e+00) (109, -8.77366811037063598633e-02) (110, -2.03214079141616821289e-01) (111, -2.82484889030456542969e-01) (112, -3.00402849912643432617e-01) (113, 2.05446317791938781738e-01) (114, 5.66115498542785644531e-01) (115, 4.45247918367385864258e-01) (116, 1.25419950485229492188e+00) (96, -2.57240676879882812500e+00) (97, 9.82646822929382324219e-01) (98, 3.63675355911254882812e-01) (99, 8.08627784252166748047e-01) (100, 1.27233386039733886719e+00) (101, 2.23981559276580810547e-01) (102, 9.57382857799530029297e-01) (103, 2.42848682403564453125e+00) (104, -2.79777789115905761719e+00) (105, 5.47440469264984130859e-01) (106, -1.73279374837875366211e-01) (107, 8.00316333770751953125e-01) (108, 7.67896413803100585938e-01) (109, 5.91177880764007568359e-01) (110, 2.57604151964187622070e-01) (111, -7.44713485240936279297e-01) (112, 1.41142082214355468750e+00) (113, 9.28828954696655273438e-01) (114, 1.17585277557373046875e+00) (115, 1.66926634311676025391e+00) (116, 1.12245738506317138672e+00) (96, 4.93900924921035766602e-01) (97, 2.44386956095695495605e-01) (98, -1.69052571058273315430e-01) (99, 3.72040480375289916992e-01) (100, -2.36636066436767578125e+00) (101, 4.57656122744083404541e-02) (102, 1.42778724431991577148e-01) (103, 1.70897209644317626953e+00) (104, 1.44450497627258300781e+00) (105, -8.81627380847930908203e-01) (106, -1.51285994052886962891e+00) (107, 2.44393333792686462402e-01) (108, 3.94591975212097167969e+00) (109, 1.72706246376037597656e-01) (110, 1.25905245542526245117e-01) (111, -5.29723465442657470703e-02) (112, -2.33425450325012207031e+00) (113, 4.07201379537582397461e-01) (114, 1.05364143848419189453e-01) (115, 3.65253269672393798828e-01) (116, 3.66180348396301269531e+00) (96, 1.31740140914916992188e+00) (97, 1.06912243366241455078e+00) (98, 9.84914898872375488281e-01) (99, 1.30976784229278564453e+00) (100, -2.97439098358154296875e+00) (101, 3.60009998083114624023e-01) (102, 2.08360821008682250977e-01) (103, -8.89462679624557495117e-02) (104, -1.37824165821075439453e+00) (105, 8.88083409518003463745e-03) (106, -1.71432599425315856934e-01) (107, -1.85392886400222778320e-01) (108, 1.96399629116058349609e-01) (109, 3.17072689533233642578e-01) (110, -7.11453333497047424316e-02) (111, 8.45413804054260253906e-01) (112, -4.42198634147644042969e-01) (113, 8.68505597114562988281e-01) (114, 2.19649598002433776855e-01) (115, 2.88404703140258789062e-01) (116, 1.81761205196380615234e+00) (96, 6.70907557010650634766e-01) (97, 1.30268561840057373047e+00) (98, 4.64407145977020263672e-01) (99, -5.04183411598205566406e-01) (100, -3.47636006772518157959e-02) (101, 2.87261605262756347656e-01) (102, 1.20279848575592041016e+00) (103, -1.23782768845558166504e-01) (104, -1.04082964360713958740e-01) (105, 5.12349307537078857422e-01) (106, 3.92651855945587158203e-01) (107, 7.67458915710449218750e-01) (108, 1.29190454483032226562e+01) (109, 2.76681572198867797852e-01) (110, 1.00174117088317871094e+00) (111, 6.29862606525421142578e-01) (112, 1.01229918003082275391e+00) (113, 1.84800729155540466309e-01) (114, 1.59201323986053466797e-01) (115, 1.07840454578399658203e+00) (116, -5.78934252262115478516e-01) (96, 1.88588809967041015625e+00) (97, -5.20139276981353759766e-01) (98, 2.12820500135421752930e-01) (99, 1.69410333037376403809e-01) (100, 1.90320014953613281250e+00) (101, 7.98639357089996337891e-01) (102, -5.84157943725585937500e-01) (103, 2.00797677040100097656e-01) (104, 2.56984066963195800781e+00) (105, 9.70936655998229980469e-01) (106, 8.73162329196929931641e-01) (107, -1.87268838286399841309e-01) (108, 1.22003352642059326172e+00) (109, -8.39812278747558593750e-01) (110, 1.23213744163513183594e+00) (111, 4.14817243814468383789e-01) (112, 7.17273855209350585938e+00) (113, 1.16800278425216674805e-01) (114, 3.86705547571182250977e-01) (115, 8.29500913619995117188e-01) (116, 1.19876289367675781250e+00) (96, 9.69279193878173828125e+00) (97, 1.89953947067260742188e+00) (98, 1.72124063968658447266e+00) (99, 2.19466853141784667969e+00) (100, 1.71253716945648193359e+00) (101, 9.29908215999603271484e-01) (102, 9.48304474353790283203e-01) (103, 1.11122086644172668457e-01) (104, 7.51773786544799804688e+00) (105, 1.53821432590484619141e+00) (106, 1.09054028987884521484e+00) (107, 4.84606504440307617188e-01) (108, 3.16061568260192871094e+00) (109, 1.85610747337341308594e+00) (110, 1.73310875892639160156e+00) (111, 3.08083963394165039062e+00) (112, 3.32212829589843750000e+01) (113, 1.88857853412628173828e+00) (114, 1.78065812587738037109e+00) (115, 1.63748848438262939453e+00) (116, 1.43610584735870361328e+00) (96, 1.81893610954284667969e+00) (97, 6.28550827503204345703e-01) (98, 1.73404049873352050781e+00) (99, 4.03971719741821289062e+00) (100, 1.80278682708740234375e+00) (101, 1.40742826461791992188e+00) (102, 4.54588025808334350586e-01) (103, 3.27313721179962158203e-01) (104, 2.35839605331420898438e+00) (105, 1.68880105018615722656e+00) (106, 1.11658835411071777344e+00) (107, 5.46351253986358642578e-01) (108, 1.32699089050292968750e+01) (109, 1.36066925525665283203e+00) (110, 1.58807706832885742188e+00) (111, 1.58911311626434326172e+00) (112, 1.63923492431640625000e+01) (113, 1.67558240890502929688e+00) (114, 1.71088492870330810547e+00) (115, 1.00945174694061279297e+00) (116, -9.10335540771484375000e-01) (96, -1.57036626338958740234e+00) (97, 7.54249989986419677734e-01) (98, 1.47597908973693847656e+00) (99, 2.53714382648468017578e-01) (100, 6.71625912189483642578e-01) (101, 1.17641997337341308594e+00) (102, 4.67070579528808593750e+00) (103, 4.28935706615447998047e-01) (104, 1.71626663208007812500e+00) (105, 7.52304553985595703125e-01) (106, -1.17214582860469818115e-01) (107, 1.09852135181427001953e+00) (108, 9.36024665832519531250e+00) (109, 3.15229177474975585938e-01) (110, 1.77704775333404541016e+00) (111, -3.14451122283935546875e+00) (112, -2.99871325492858886719e+00) (113, 2.83405303955078125000e-01) (114, 7.59007692337036132812e-01) (115, -2.28517632931470870972e-02) (116, 2.81674027442932128906e-01) (96, 1.99126935005187988281e+00) (97, 1.86403715610504150391e+00) (98, 6.61415934562683105469e-01) (99, 2.97620773315429687500e+00) (100, 3.32296681404113769531e+00) (101, 1.87020194530487060547e+00) (102, 1.19060254096984863281e+00) (103, 1.21463096141815185547e+00) (104, 3.81972312927246093750e+00) (105, 1.57214367389678955078e+00) (106, 1.78094923496246337891e+00) (107, 2.02975010871887207031e+00) (108, 7.66670751571655273438e+00) (109, 1.54823184013366699219e+00) (110, 7.49148786067962646484e-01) (111, -6.21366214752197265625e+00) (112, 1.50346212387084960938e+01) (113, 1.03133976459503173828e+00) (114, 8.88451814651489257812e-01) (115, 2.03102135658264160156e+00) (116, -3.02425194531679153442e-02) (96, 5.01713156700134277344e-01) (97, 4.79678958654403686523e-01) (98, 5.20860135555267333984e-01) (99, -7.00043067336082458496e-02) (100, 1.29540133476257324219e+00) (101, 9.61155951023101806641e-01) (102, 5.71591496467590332031e-01) (103, 1.01533150672912597656e+00) (104, 7.61649534106254577637e-02) (105, 1.47923037409782409668e-01) (106, -9.43057462573051452637e-02) (107, 1.49899446964263916016e+00) (108, 1.13623514175415039062e+01) (109, 4.62640583515167236328e-01) (110, 7.18024075031280517578e-01) (111, 6.72393023967742919922e-01) (112, 2.80275285243988037109e-01) (113, 5.23760557174682617188e-01) (114, 8.07768344879150390625e-01) (115, 1.73215711116790771484e+00) (116, -1.98515743017196655273e-01) (117, 7.63321042060852050781e-01) (118, -6.20834268629550933838e-02) (119, 2.36983537673950195312e-01) (120, 1.41227245330810546875e-01) (121, -5.07749766111373901367e-02) (122, -1.86403453350067138672e-01) (123, -3.97254675626754760742e-02) (124, -1.57345518469810485840e-01) (125, -1.62675902247428894043e-01) (126, 6.28783345222473144531e-01) (127, 2.06762909889221191406e-01) (128, 2.69129127264022827148e-01) (129, 1.88804686069488525391e-01) (130, 3.87456715106964111328e-01) (131, 5.16600966453552246094e-01) (132, -2.34165906906127929688e-01) (133, -1.53728798031806945801e-01) (134, -9.69999842345714569092e-03) (135, -3.36025714874267578125e-01) (136, 2.55741417407989501953e-01) (137, 3.63149382174015045166e-02) 
